{"learner":{"attributes":{"scikit_learn":"{\"_estimator_type\": \"classifier\"}"},"feature_names":["loan_amnt","term","int_rate","emp_length","annual_inc","dti","delinq_2yrs","inq_last_6mths","open_acc","pub_rec","revol_bal","revol_util","total_acc","mort_acc","pub_rec_bankruptcies","credit_history_years","fico_score","home_ownership_OWN","home_ownership_RENT","verification_status_Source_Verified","verification_status_Verified","purpose_credit_card","purpose_debt_consolidation","purpose_home_improvement","purpose_major_purchase","purpose_medical","purpose_other","purpose_small_business","application_type_Joint_App"],"feature_types":["float","int","float","float","float","float","float","float","float","float","float","float","float","float","float","float","float","int","int","int","int","int","int","int","int","int","int","int","int"],"gradient_booster":{"model":{"cats":{"enc":[],"feature_segments":[],"sorted_idx":[]},"gbtree_model_param":{"num_parallel_tree":"1","num_trees":"500"},"iteration_indptr":[0,1,2,3,4,5,6,7,8,9,10,11,12,13,14,15,16,17,18,19,20,21,22,23,24,25,26,27,28,29,30,31,32,33,34,35,36,37,38,39,40,41,42,43,44,45,46,47,48,49,50,51,52,53,54,55,56,57,58,59,60,61,62,63,64,65,66,67,68,69,70,71,72,73,74,75,76,77,78,79,80,81,82,83,84,85,86,87,88,89,90,91,92,93,94,95,96,97,98,99,100,101,102,103,104,105,106,107,108,109,110,111,112,113,114,115,116,117,118,119,120,121,122,123,124,125,126,127,128,129,130,131,132,133,134,135,136,137,138,139,140,141,142,143,144,145,146,147,148,149,150,151,152,153,154,155,156,157,158,159,160,161,162,163,164,165,166,167,168,169,170,171,172,173,174,175,176,177,178,179,180,181,182,183,184,185,186,187,188,189,190,191,192,193,194,195,196,197,198,199,200,201,202,203,204,205,206,207,208,209,210,211,212,213,214,215,216,217,218,219,220,221,222,223,224,225,226,227,228,229,230,231,232,233,234,235,236,237,238,239,240,241,242,243,244,245,246,247,248,249,250,251,252,253,254,255,256,257,258,259,260,261,262,263,264,265,266,267,268,269,270,271,272,273,274,275,276,277,278,279,280,281,282,283,284,285,286,287,288,289,290,291,292,293,294,295,296,297,298,299,300,301,302,303,304,305,306,307,308,309,310,311,312,313,314,315,316,317,318,319,320,321,322,323,324,325,326,327,328,329,330,331,332,333,334,335,336,337,338,339,340,341,342,343,344,345,346,347,348,349,350,351,352,353,354,355,356,357,358,359,360,361,362,363,364,365,366,367,368,369,370,371,372,373,374,375,376,377,378,379,380,381,382,383,384,385,386,387,388,389,390,391,392,393,394,395,396,397,398,399,400,401,402,403,404,405,406,407,408,409,410,411,412,413,414,415,416,417,418,419,420,421,422,423,424,425,426,427,428,429,430,431,432,433,434,435,436,437,438,439,440,441,442,443,444,445,446,447,448,449,450,451,452,453,454,455,456,457,458,459,460,461,462,463,464,465,466,467,468,469,470,471,472,473,474,475,476,477,478,479,480,481,482,483,484,485,486,487,488,489,490,491,492,493,494,495,496,497,498,499,500],"tree_info":[0,0,0,0,0,0,0,0,0,0,0,0,0,0,0,0,0,0,0,0,0,0,0,0,0,0,0,0,0,0,0,0,0,0,0,0,0,0,0,0,0,0,0,0,0,0,0,0,0,0,0,0,0,0,0,0,0,0,0,0,0,0,0,0,0,0,0,0,0,0,0,0,0,0,0,0,0,0,0,0,0,0,0,0,0,0,0,0,0,0,0,0,0,0,0,0,0,0,0,0,0,0,0,0,0,0,0,0,0,0,0,0,0,0,0,0,0,0,0,0,0,0,0,0,0,0,0,0,0,0,0,0,0,0,0,0,0,0,0,0,0,0,0,0,0,0,0,0,0,0,0,0,0,0,0,0,0,0,0,0,0,0,0,0,0,0,0,0,0,0,0,0,0,0,0,0,0,0,0,0,0,0,0,0,0,0,0,0,0,0,0,0,0,0,0,0,0,0,0,0,0,0,0,0,0,0,0,0,0,0,0,0,0,0,0,0,0,0,0,0,0,0,0,0,0,0,0,0,0,0,0,0,0,0,0,0,0,0,0,0,0,0,0,0,0,0,0,0,0,0,0,0,0,0,0,0,0,0,0,0,0,0,0,0,0,0,0,0,0,0,0,0,0,0,0,0,0,0,0,0,0,0,0,0,0,0,0,0,0,0,0,0,0,0,0,0,0,0,0,0,0,0,0,0,0,0,0,0,0,0,0,0,0,0,0,0,0,0,0,0,0,0,0,0,0,0,0,0,0,0,0,0,0,0,0,0,0,0,0,0,0,0,0,0,0,0,0,0,0,0,0,0,0,0,0,0,0,0,0,0,0,0,0,0,0,0,0,0,0,0,0,0,0,0,0,0,0,0,0,0,0,0,0,0,0,0,0,0,0,0,0,0,0,0,0,0,0,0,0,0,0,0,0,0,0,0,0,0,0,0,0,0,0,0,0,0,0,0,0,0,0,0,0,0,0,0,0,0,0,0,0,0,0,0,0,0,0,0,0,0,0,0,0,0,0,0,0,0,0,0,0,0,0,0,0,0,0,0,0,0,0,0,0,0,0,0,0,0,0,0,0,0,0,0,0,0,0,0,0,0,0,0,0,0,0,0,0,0,0,0,0,0,0,0,0,0,0,0,0,0],"trees":[{"base_weights":[-1.2628486E-3,5.0325054E-1,-5.882897E-1,7.898019E-1,2.571511E-1,-2.970141E-1,-1.0921221E0,9.4754803E-1,6.487558E-1,3.2026052E-1,-9.661765E-2,-1.18171185E-1,-6.71697E-1,-6.8686444E-1,-1.410272E0,1.0158923E0,8.6348957E-1,6.759597E-1,3.6064017E-1,1.8318446E-1,4.3243605E-1,-5.304807E-1,3.0639477E-2,-2.2740363E-1,9.93806E-2,-1.1855947E0,-4.4955796E-1,-5.9728134E-1,-1.3156861E0,-1.6983825E0,-1.0420207E0,1.0394706E0,9.1130704E-1,9.05559E-1,7.6239383E-1,7.563775E-1,6.146569E-1,5.2228975E-1,1.7665875E-1,3.5097414E-1,8.811279E-2,5.0604254E-1,2.8015694E-1,-4.2205742E-1,-9.8599637E-1,1.5246347E-1,-1.6452813E-1,-7.008695E-2,-3.4727085E-1,2.5617E-1,-2.986984E-2,-1.0725598E0,-1.7516093E0,-3.1387758E-1,-7.5690436E-1,-6.7072436E-2,-6.886125E-1,-1.8986627E-1,-1.4449376E0,-1.5028406E0,-2.0589232E0,-8.808934E-1,-1.4481609E0,4.8534162E-2,5.3258326E-2,4.6981916E-2,3.940169E-2,4.5630872E-2,3.0193958E-2,3.593651E-2,4.294367E-2,3.4235395E-2,4.2115565E-2,3.4962565E-2,2.7811015E-2,5.8078477E-3,3.0021086E-2,1.06415525E-2,-2.7722988E-2,2.1417907E-2,9.354024E-3,8.115044E-3,-3.6129435E-3,3.0316174E-2,2.1537213E-2,2.0352475E-2,9.402887E-3,-8.784661E-3,-3.1375494E-2,-2.0710927E-2,-5.6969386E-2,1.272023E-2,-6.415117E-4,-9.930299E-4,-1.8260544E-2,2.261385E-3,-1.0924639E-2,-8.476805E-3,-2.2721311E-2,8.043586E-3,2.025873E-2,8.7880716E-4,-1.576863E-2,-4.8648212E-2,-6.852909E-2,-6.1014652E-2,-9.360663E-2,-2.990566E-2,-1.0948229E-2,-5.206279E-2,-3.2332584E-2,-9.62059E-3,9.213137E-3,-4.0568434E-2,-2.0314133E-2,-2.4291992E-2,1.6461195E-2,-8.370038E-2,-5.590483E-2,-6.7764275E-2,-9.467711E-2,-9.591939E-2,-1.15221344E-1,-5.2977014E-2,-3.3983085E-2,-7.5763665E-2,-3.125781E-2],"categories":[],"categories_nodes":[],"categories_segments":[],"categories_sizes":[],"default_left":[0,0,0,0,0,0,0,0,0,0,0,0,0,0,0,0,0,0,0,0,0,0,0,0,0,0,0,0,0,0,0,0,0,0,0,0,0,0,0,0,0,0,0,0,0,0,0,0,0,0,0,0,0,0,0,0,0,0,0,0,0,0,0,0,0,0,0,0,0,0,0,0,0,0,0,0,0,0,0,0,0,0,0,0,0,0,0,0,0,0,0,0,0,0,0,0,0,0,0,0,0,0,0,0,0,0,0,0,0,0,0,0,0,0,0,0,0,0,0,0,0,0,0,0,0,0,0],"id":0,"left_children":[1,3,5,7,9,11,13,15,17,19,21,23,25,27,29,31,33,35,37,39,41,43,45,47,49,51,53,55,57,59,61,63,65,67,69,71,73,75,77,79,81,83,85,87,89,91,93,95,97,99,101,103,105,107,109,111,113,115,117,119,121,123,125,-1,-1,-1,-1,-1,-1,-1,-1,-1,-1,-1,-1,-1,-1,-1,-1,-1,-1,-1,-1,-1,-1,-1,-1,-1,-1,-1,-1,-1,-1,-1,-1,-1,-1,-1,-1,-1,-1,-1,-1,-1,-1,-1,-1,-1,-1,-1,-1,-1,-1,-1,-1,-1,-1,-1,-1,-1,-1,-1,-1,-1,-1,-1,-1],"loss_changes":[3.6606004E4,4.687424E3,8.383551E3,6.826992E2,7.984514E2,2.4257866E3,2.6973164E3,8.2396484E1,1.2686426E2,4.6657104E2,2.9896674E2,5.8238446E2,1.3347041E3,5.1779834E2,1.242002E3,1.8753906E1,2.6984375E1,7.258008E1,4.1582077E1,2.1787207E2,1.8692334E2,6.023456E1,9.9588524E1,3.0763025E2,1.6602551E2,2.239336E2,3.4037842E2,3.9024512E2,1.6664734E2,4.6049023E2,3.356372E2,1.04765625E1,4.4210205E0,9.221924E0,7.4643555E0,3.8869873E1,4.1200195E1,2.3582962E1,1.7489859E1,6.2574707E1,1.03767815E2,8.468506E1,6.3505493E1,5.018593E1,2.0169922E1,4.345555E1,4.6729153E1,1.2077269E2,1.7627026E2,5.2501236E1,6.084603E1,8.60647E1,3.523645E1,1.527851E2,7.772888E1,3.737933E1,2.3795361E2,1.8486599E1,7.515625E1,2.4342871E2,7.526367E1,1.3188232E2,7.9738525E1,0E0,0E0,0E0,0E0,0E0,0E0,0E0,0E0,0E0,0E0,0E0,0E0,0E0,0E0,0E0,0E0,0E0,0E0,0E0,0E0,0E0,0E0,0E0,0E0,0E0,0E0,0E0,0E0,0E0,0E0,0E0,0E0,0E0,0E0,0E0,0E0,0E0,0E0,0E0,0E0,0E0,0E0,0E0,0E0,0E0,0E0,0E0,0E0,0E0,0E0,0E0,0E0,0E0,0E0,0E0,0E0,0E0,0E0,0E0,0E0,0E0,0E0,0E0,0E0],"parents":[2147483647,0,0,1,1,2,2,3,3,4,4,5,5,6,6,7,7,8,8,9,9,10,10,11,11,12,12,13,13,14,14,15,15,16,16,17,17,18,18,19,19,20,20,21,21,22,22,23,23,24,24,25,25,26,26,27,27,28,28,29,29,30,30,31,31,32,32,33,33,34,34,35,35,36,36,37,37,38,38,39,39,40,40,41,41,42,42,43,43,44,44,45,45,46,46,47,47,48,48,49,49,50,50,51,51,52,52,53,53,54,54,55,55,56,56,57,57,58,58,59,59,60,60,61,61,62,62],"right_children":[2,4,6,8,10,12,14,16,18,20,22,24,26,28,30,32,34,36,38,40,42,44,46,48,50,52,54,56,58,60,62,64,66,68,70,72,74,76,78,80,82,84,86,88,90,92,94,96,98,100,102,104,106,108,110,112,114,116,118,120,122,124,126,-1,-1,-1,-1,-1,-1,-1,-1,-1,-1,-1,-1,-1,-1,-1,-1,-1,-1,-1,-1,-1,-1,-1,-1,-1,-1,-1,-1,-1,-1,-1,-1,-1,-1,-1,-1,-1,-1,-1,-1,-1,-1,-1,-1,-1,-1,-1,-1,-1,-1,-1,-1,-1,-1,-1,-1,-1,-1,-1,-1,-1,-1,-1,-1],"split_conditions":[1.1623078E-2,-7.3472637E-1,9.560262E-1,-1.1224946E0,6E1,6E1,6E1,-1.3247178E0,6E1,-3.3208808E-1,-3.3208808E-1,1.6890937E-1,-3.3208808E-1,2.2339933E0,1.6890937E-1,4.1082016E-1,1.902397E-1,-4.0964577E-1,-2.2291099E-1,-3.9282328E-1,3.746403E-1,8.916622E-1,1.4589019E-1,-1.4121452E-1,-6.7687705E-2,1.2476254E0,5.6254214E-1,-1.2164516E0,-1.2792023E0,7.24768E-1,8.286392E-1,-3.3208808E-1,1.4952722E0,6E1,2.7245086E-1,1.6890937E-1,-1.0495274E0,-3.3208808E-1,1.4468396E0,3.3846042E-1,4.5983803E-1,-3.823994E-1,-3.761451E-1,-2.677368E-1,-9.30044E-1,-2.0519353E-1,-2.0519353E-1,1E0,2.4720266E-1,1.1709043E0,7.7465075E-1,6.8292063E-1,2.1384627E-1,-3.6607355E-1,1.6890937E-1,-4.6213686E-1,1.6890937E-1,-3.3208808E-1,-3.3208808E-1,2.2339933E0,2.0088377E0,2.4392843E-1,2.9491723E0,4.8534162E-2,5.3258326E-2,4.6981916E-2,3.940169E-2,4.5630872E-2,3.0193958E-2,3.593651E-2,4.294367E-2,3.4235395E-2,4.2115565E-2,3.4962565E-2,2.7811015E-2,5.8078477E-3,3.0021086E-2,1.06415525E-2,-2.7722988E-2,2.1417907E-2,9.354024E-3,8.115044E-3,-3.6129435E-3,3.0316174E-2,2.1537213E-2,2.0352475E-2,9.402887E-3,-8.784661E-3,-3.1375494E-2,-2.0710927E-2,-5.6969386E-2,1.272023E-2,-6.415117E-4,-9.930299E-4,-1.8260544E-2,2.261385E-3,-1.0924639E-2,-8.476805E-3,-2.2721311E-2,8.043586E-3,2.025873E-2,8.7880716E-4,-1.576863E-2,-4.8648212E-2,-6.852909E-2,-6.1014652E-2,-9.360663E-2,-2.990566E-2,-1.0948229E-2,-5.206279E-2,-3.2332584E-2,-9.62059E-3,9.213137E-3,-4.0568434E-2,-2.0314133E-2,-2.4291992E-2,1.6461195E-2,-8.370038E-2,-5.590483E-2,-6.7764275E-2,-9.467711E-2,-9.591939E-2,-1.15221344E-1,-5.2977014E-2,-3.3983085E-2,-7.5763665E-2,-3.125781E-2],"split_indices":[2,2,2,2,1,1,1,2,1,13,13,13,13,2,13,5,5,5,5,2,5,5,5,5,5,5,5,0,0,5,5,13,8,1,0,13,2,13,7,5,5,2,2,2,11,2,2,19,2,13,2,2,2,4,13,4,13,13,13,2,2,4,10,0,0,0,0,0,0,0,0,0,0,0,0,0,0,0,0,0,0,0,0,0,0,0,0,0,0,0,0,0,0,0,0,0,0,0,0,0,0,0,0,0,0,0,0,0,0,0,0,0,0,0,0,0,0,0,0,0,0,0,0,0,0,0,0],"split_type":[0,0,0,0,0,0,0,0,0,0,0,0,0,0,0,0,0,0,0,0,0,0,0,0,0,0,0,0,0,0,0,0,0,0,0,0,0,0,0,0,0,0,0,0,0,0,0,0,0,0,0,0,0,0,0,0,0,0,0,0,0,0,0,0,0,0,0,0,0,0,0,0,0,0,0,0,0,0,0,0,0,0,0,0,0,0,0,0,0,0,0,0,0,0,0,0,0,0,0,0,0,0,0,0,0,0,0,0,0,0,0,0,0,0,0,0,0,0,0,0,0,0,0,0,0,0,0],"sum_hessian":[1.2359892E5,6.647118E4,5.712774E4,3.0710504E4,3.5760676E4,3.620088E4,2.092686E4,1.4494318E4,1.6216187E4,3.0347098E4,5.4135767E3,2.450535E4,1.169553E4,9.204886E3,1.1721974E4,7.9883037E3,6.5060146E3,1.4815922E4,1.400265E3,1.3658878E4,1.6688219E4,1.2270331E3,4.186544E3,1.6314045E4,8.1913047E3,3.5284524E3,8.1670776E3,8.058768E3,1.1461176E3,6.574579E3,5.147395E3,6.5113984E3,1.476905E3,4.5885874E3,1.9174272E3,6.403881E3,8.412041E3,7.4439056E2,6.5587445E2,4.9391685E3,8.71971E3,1.1248674E4,5.439546E3,9.926791E2,2.3435397E2,2.5777354E3,1.6088083E3,7.055638E3,9.258407E3,3.7008926E3,4.490412E3,2.9435176E3,5.849349E2,5.667249E3,2.4998284E3,1.1844376E3,6.8743306E3,1.18285416E2,1.0278322E3,4.266034E3,2.308545E3,3.6875913E3,1.4598036E3,1.7814069E3,4.7299917E3,1.195522E3,2.8138312E2,4.481703E3,1.06884415E2,1.3258418E3,5.9158545E2,3.4966245E3,2.907256E3,3.4323357E3,4.979705E3,1.2050228E2,6.238883E2,6.256301E2,3.024433E1,3.3539536E3,1.5852146E3,5.961775E3,2.7579346E3,4.821041E3,6.427633E3,2.286218E3,3.1533276E3,4.5223984E2,5.404393E2,5.0354435E1,1.8399954E2,1.594082E3,9.836533E2,9.3551575E2,6.732926E2,3.9708748E3,3.0847634E3,3.4833235E3,5.7750835E3,2.2585073E3,1.4423854E3,3.8513225E3,6.390896E2,2.2094197E3,7.3409796E2,1.1020971E2,4.7472513E2,1.4173665E3,4.249883E3,6.9609467E2,1.8037339E3,7.904696E2,3.9396802E2,4.7898467E3,2.0844836E3,7.537331E1,4.2912113E1,6.01878E2,4.259542E2,3.0998064E3,1.1662277E3,1.4737382E3,8.348068E2,1.9511552E3,1.7364363E3,1.3489604E3,1.10843094E2],"tree_param":{"num_deleted":"0","num_feature":"29","num_nodes":"127","size_leaf_vector":"1"}},{"base_weights":[-8.4113836E-4,4.855878E-1,-5.4836667E-1,7.689375E-1,2.465184E-1,-2.5269112E-1,-9.655638E-1,9.263653E-1,6.2977874E-1,3.0982175E-1,-1.0335444E-1,-1.07636124E-1,-6.3242215E-1,-5.4115427E-1,-1.2196621E0,1.0092298E0,8.530112E-1,6.5554875E-1,3.5811424E-1,4.1653958E-1,1.7406003E-1,2.8312175E-2,-4.9281475E-1,2.7424963E-2,-2.578106E-1,-1.0027362E-1,-7.225536E-1,-3.601045E-1,-9.495679E-1,-9.8656875E-1,-1.6161565E0,1.0321819E0,9.1658485E-1,8.961684E-1,7.4941415E-1,7.1161E-1,5.627952E-1,4.353706E-1,2.2048345E-2,5.380415E-1,3.364784E-1,3.070176E-1,4.8336633E-2,1.5384732E-1,-1.612417E-1,-3.5606056E-1,-7.8523403E-1,1.7525022E-1,-7.578157E-2,-1.2753057E-1,-4.6915102E-1,2.8568023E-1,-1.8405342E-1,-5.718369E-1,-1.1050057E0,-1.9972879E-1,-5.202734E-1,-7.666365E-1,-1.2233739E0,-8.4941185E-1,-1.3058058E0,-1.3755525E0,-1.9126911E0,5.2230615E-2,4.5983475E-2,3.3059392E-2,4.670051E-2,4.672141E-2,4.088135E-2,4.0030386E-2,3.161635E-2,3.794038E-2,3.0587543E-2,3.2448407E-2,2.2567583E-2,2.9122094E-2,1.5113726E-2,1.0136445E-2,-1.4756748E-2,2.9505229E-2,2.1393705E-2,2.1692337E-2,1.2093524E-2,2.1685658E-2,1.141719E-2,1.0125274E-2,-1.6213201E-3,1.2705232E-2,-4.0722854E-4,-4.6569068E-4,-1.4933269E-2,-8.950842E-3,-2.5429014E-2,-3.040629E-2,-6.017325E-2,-3.4120647E-5,1.3199135E-2,-1.1517212E-2,3.452262E-4,7.2574094E-3,-8.874738E-3,-1.8875167E-2,-3.414349E-2,4.68306E-3,2.4612976E-2,-1.4302358E-2,7.6394337E-3,-1.9095436E-2,-3.7032623E-2,-4.3513518E-2,-6.638681E-2,-2.346127E-2,-5.592176E-3,-2.1641528E-2,-3.389279E-2,-4.6553332E-2,-2.9677374E-2,-5.5149563E-2,-8.087118E-2,-3.6903188E-2,-5.945418E-2,-5.869003E-2,-8.318579E-2,-6.388005E-2,-9.324622E-2,-9.084317E-2,-1.1064167E-1],"categories":[],"categories_nodes":[],"categories_segments":[],"categories_sizes":[],"default_left":[0,0,0,0,0,0,0,0,0,0,0,0,0,0,0,0,0,0,0,0,0,0,0,0,0,0,0,0,0,0,0,0,0,0,0,0,0,0,0,0,0,0,0,0,0,0,0,0,0,0,0,0,0,0,0,0,0,0,0,0,0,0,0,0,0,0,0,0,0,0,0,0,0,0,0,0,0,0,0,0,0,0,0,0,0,0,0,0,0,0,0,0,0,0,0,0,0,0,0,0,0,0,0,0,0,0,0,0,0,0,0,0,0,0,0,0,0,0,0,0,0,0,0,0,0,0,0],"id":1,"left_children":[1,3,5,7,9,11,13,15,17,19,21,23,25,27,29,31,33,35,37,39,41,43,45,47,49,51,53,55,57,59,61,63,65,67,69,71,73,75,77,79,81,83,85,87,89,91,93,95,97,99,101,103,105,107,109,111,113,115,117,119,121,123,125,-1,-1,-1,-1,-1,-1,-1,-1,-1,-1,-1,-1,-1,-1,-1,-1,-1,-1,-1,-1,-1,-1,-1,-1,-1,-1,-1,-1,-1,-1,-1,-1,-1,-1,-1,-1,-1,-1,-1,-1,-1,-1,-1,-1,-1,-1,-1,-1,-1,-1,-1,-1,-1,-1,-1,-1,-1,-1,-1,-1,-1,-1,-1,-1],"loss_changes":[3.2929652E4,4.4350117E3,7.1750234E3,6.557988E2,7.8657983E2,1.8750845E3,2.6010898E3,8.457715E1,1.11125E2,4.356206E2,2.7906152E2,4.996611E2,4.512412E2,6.678633E2,1.3930137E3,1.307666E1,3.2692383E1,7.513965E1,3.582936E1,1.6359692E2,2.2125092E2,9.682095E1,5.4704285E1,1.9790224E2,3.211092E2,4.4159256E1,4.6318457E2,1.6076941E2,1.3805371E2,4.1510352E2,3.9585645E2,6.419922E0,5.2493896E0,1.5050293E1,1.2684326E1,4.219336E1,5.2309814E1,2.1792648E1,1.4906643E1,3.809485E1,9.341016E1,6.402417E1,8.4732895E1,3.975412E1,3.384436E1,2.5255333E1,3.1659454E1,8.325276E1,9.762691E1,9.8359985E1,8.686554E1,9.619904E0,3.8569244E1,1.8484717E2,1.1771045E2,7.410436E1,4.2874695E1,4.686975E1,5.08584E1,2.507085E2,1.3292627E2,1.4558838E2,6.7862305E1,0E0,0E0,0E0,0E0,0E0,0E0,0E0,0E0,0E0,0E0,0E0,0E0,0E0,0E0,0E0,0E0,0E0,0E0,0E0,0E0,0E0,0E0,0E0,0E0,0E0,0E0,0E0,0E0,0E0,0E0,0E0,0E0,0E0,0E0,0E0,0E0,0E0,0E0,0E0,0E0,0E0,0E0,0E0,0E0,0E0,0E0,0E0,0E0,0E0,0E0,0E0,0E0,0E0,0E0,0E0,0E0,0E0,0E0,0E0,0E0,0E0,0E0,0E0,0E0],"parents":[2147483647,0,0,1,1,2,2,3,3,4,4,5,5,6,6,7,7,8,8,9,9,10,10,11,11,12,12,13,13,14,14,15,15,16,16,17,17,18,18,19,19,20,20,21,21,22,22,23,23,24,24,25,25,26,26,27,27,28,28,29,29,30,30,31,31,32,32,33,33,34,34,35,35,36,36,37,37,38,38,39,39,40,40,41,41,42,42,43,43,44,44,45,45,46,46,47,47,48,48,49,49,50,50,51,51,52,52,53,53,54,54,55,55,56,56,57,57,58,58,59,59,60,60,61,61,62,62],"right_children":[2,4,6,8,10,12,14,16,18,20,22,24,26,28,30,32,34,36,38,40,42,44,46,48,50,52,54,56,58,60,62,64,66,68,70,72,74,76,78,80,82,84,86,88,90,92,94,96,98,100,102,104,106,108,110,112,114,116,118,120,122,124,126,-1,-1,-1,-1,-1,-1,-1,-1,-1,-1,-1,-1,-1,-1,-1,-1,-1,-1,-1,-1,-1,-1,-1,-1,-1,-1,-1,-1,-1,-1,-1,-1,-1,-1,-1,-1,-1,-1,-1,-1,-1,-1,-1,-1,-1,-1,-1,-1,-1,-1,-1,-1,-1,-1,-1,-1,-1,-1,-1,-1,-1,-1,-1,-1],"split_conditions":[1.1623078E-2,-7.3472637E-1,6E1,-1.1224946E0,6E1,9.560262E-1,6.8292063E-1,-1.3747523E0,6E1,1E0,1E0,1E0,-1.2164516E0,1E0,1E0,3.1511858E-1,2.0074353E-1,1E0,1E0,-3.9282328E-1,-1.8089566E-1,1.4589019E-1,3.6180225E-1,-1.4121452E-1,3.5013133E-1,-1.473159E0,1.6419172E0,1.6342938E-2,3.256224E-1,8.286392E-1,4.2249107E-1,7.513891E-1,-9.6166605E-1,1E0,1E0,2.5793105E-1,-1.2837651E-1,-3.4778985E-1,4.0608874E-1,3.746403E-1,-4.5512956E-2,-3.9282328E-1,-3.9282328E-1,-2.0519353E-1,-2.677368E-1,-2.677368E-1,-1.21802524E-1,-4.8549536E-1,-3.9375812E-1,-1.1651101E0,5.6617326E-1,-7.743426E-1,-2.5560075E-1,9.220394E-2,1E0,-3.6607355E-1,9.721916E-1,-2.4548078E-1,1.4577019E0,2.0088377E0,2.0088377E0,2.413284E0,2.2339933E0,5.2230615E-2,4.5983475E-2,3.3059392E-2,4.670051E-2,4.672141E-2,4.088135E-2,4.0030386E-2,3.161635E-2,3.794038E-2,3.0587543E-2,3.2448407E-2,2.2567583E-2,2.9122094E-2,1.5113726E-2,1.0136445E-2,-1.4756748E-2,2.9505229E-2,2.1393705E-2,2.1692337E-2,1.2093524E-2,2.1685658E-2,1.141719E-2,1.0125274E-2,-1.6213201E-3,1.2705232E-2,-4.0722854E-4,-4.6569068E-4,-1.4933269E-2,-8.950842E-3,-2.5429014E-2,-3.040629E-2,-6.017325E-2,-3.4120647E-5,1.3199135E-2,-1.1517212E-2,3.452262E-4,7.2574094E-3,-8.874738E-3,-1.8875167E-2,-3.414349E-2,4.68306E-3,2.4612976E-2,-1.4302358E-2,7.6394337E-3,-1.9095436E-2,-3.7032623E-2,-4.3513518E-2,-6.638681E-2,-2.346127E-2,-5.592176E-3,-2.1641528E-2,-3.389279E-2,-4.6553332E-2,-2.9677374E-2,-5.5149563E-2,-8.087118E-2,-3.6903188E-2,-5.945418E-2,-5.869003E-2,-8.318579E-2,-6.388005E-2,-9.324622E-2,-9.084317E-2,-1.1064167E-1],"split_indices":[2,2,1,2,1,2,2,2,1,18,18,18,0,18,18,5,5,18,18,2,5,5,5,5,5,0,2,5,5,5,5,6,4,18,18,5,5,5,8,5,5,2,2,2,2,2,2,15,15,0,2,4,4,5,18,4,5,15,5,2,2,2,2,0,0,0,0,0,0,0,0,0,0,0,0,0,0,0,0,0,0,0,0,0,0,0,0,0,0,0,0,0,0,0,0,0,0,0,0,0,0,0,0,0,0,0,0,0,0,0,0,0,0,0,0,0,0,0,0,0,0,0,0,0,0,0,0],"split_type":[0,0,0,0,0,0,0,0,0,0,0,0,0,0,0,0,0,0,0,0,0,0,0,0,0,0,0,0,0,0,0,0,0,0,0,0,0,0,0,0,0,0,0,0,0,0,0,0,0,0,0,0,0,0,0,0,0,0,0,0,0,0,0,0,0,0,0,0,0,0,0,0,0,0,0,0,0,0,0,0,0,0,0,0,0,0,0,0,0,0,0,0,0,0,0,0,0,0,0,0,0,0,0,0,0,0,0,0,0,0,0,0,0,0,0,0,0,0,0,0,0,0,0,0,0,0,0],"sum_hessian":[1.2363924E5,6.5472617E4,5.816663E4,2.9960559E4,3.551206E4,3.404201E4,2.4124617E4,1.4054878E4,1.5905681E4,3.0071299E4,5.44076E3,2.4633459E4,9.408553E3,9.035739E3,1.5088878E4,6.593628E3,7.46125E3,1.4526308E4,1.3793734E3,1.6835443E4,1.3235855E4,4.0668042E3,1.3739556E3,1.296977E4,1.166369E4,1.3630477E3,8.045505E3,6.261776E3,2.7739631E3,9.504694E3,5.5841836E3,5.2763184E3,1.3173098E3,5.261659E3,2.1995908E3,9.04982E3,5.476487E3,1.1213069E3,2.5806662E2,6.6847925E3,1.015065E4,6.432153E3,6.8037026E3,2.446655E3,1.620149E3,9.3766187E2,4.3629373E2,5.3319653E3,7.6378037E3,7.21663E3,4.4470605E3,2.4267789E2,1.1203698E3,5.772983E3,2.272522E3,3.1299907E3,3.1317854E3,1.6652198E3,1.1087432E3,6.6508755E3,2.8538188E3,3.085937E3,2.4982466E3,4.7439224E3,5.323957E2,8.662484E1,1.2306849E3,3.5308064E3,1.7308529E3,1.52638E3,6.7321094E2,6.1408203E3,2.909E3,3.0856833E3,2.3908035E3,5.3108325E2,5.902236E2,1.6464114E2,9.342547E1,4.536547E3,2.1482454E3,5.0005815E3,5.1500693E3,2.4623296E3,3.9698232E3,2.3384053E3,4.4652974E3,1.5109528E3,9.3570233E2,7.6997546E2,8.5017365E2,4.3494952E2,5.027123E2,3.082241E2,1.2806964E2,1.7879443E3,3.544021E3,2.6613098E3,4.9764937E3,1.1172654E3,6.0993643E3,3.114329E3,1.3327317E3,1.2652453E2,1.1615336E2,8.600904E2,2.602794E2,2.7181526E3,3.0548303E3,1.108832E3,1.16369E3,7.68642E2,2.3613486E3,2.016546E3,1.1152395E3,8.5172437E2,8.134955E2,8.5219543E2,2.5654776E2,5.0112915E3,1.6395837E3,2.0879978E3,7.65821E2,2.5742852E3,5.1165198E2,1.8989988E3,5.992477E2],"tree_param":{"num_deleted":"0","num_feature":"29","num_nodes":"127","size_leaf_vector":"1"}},{"base_weights":[-1.1983786E-3,4.6667096E-1,-5.126389E-1,7.4623E-1,2.3502257E-1,-2.3957346E-1,-8.8891923E-1,9.0520084E-1,6.0709894E-1,2.9392645E-1,-8.604092E-2,-1.0402994E-1,-5.8943224E-1,-5.8856297E-1,-1.1777283E0,8.028392E-1,9.727109E-1,6.3108474E-1,3.584939E-1,3.9915267E-1,1.600349E-1,4.224882E-2,-4.606484E-1,2.1931306E-2,-2.4241288E-1,-3.1469488E-1,-7.2255516E-1,-3.9965317E-1,-9.896761E-1,-9.754402E-1,-1.5059266E0,8.6477983E-1,7.530209E-1,1.035707E0,8.956498E-1,5.569503E-1,7.212245E-1,4.9389634E-2,4.9634355E-1,5.2394825E-1,3.1737483E-1,3.0601236E-1,7.735173E-2,-1.7756385E-1,2.0165256E-1,-6.8059796E-1,-1.8887685E-1,8.8308E-2,-1.5177634E-1,-1.6551127E-1,-4.348877E-1,-4.0404147E-1,9.051677E-2,-5.8744097E-1,-1.1362036E0,-5.661969E-1,-2.1750407E-1,-1.1940169E0,-7.696124E-1,-1.1296015E0,-7.921663E-1,-1.4166375E0,-1.8294711E0,4.5574006E-2,3.9670803E-2,3.9609488E-2,3.184788E-2,4.470923E-2,5.2373726E-2,4.511288E-2,2.2156805E-2,3.2499086E-2,2.5227953E-2,3.8245365E-2,3.1962533E-2,-1.8095497E-2,7.2674626E-3,2.8815085E-2,5.752113E-3,2.0457828E-2,2.9617926E-2,9.190861E-3,1.8598167E-2,2.3320865E-2,1.3241786E-2,-1.2180399E-3,9.362297E-3,1.195894E-3,-1.3723554E-2,5.773112E-3,1.998656E-2,-8.412282E-3,-3.7108E-2,-4.086368E-3,-2.5189145E-2,1.6205618E-2,2.8011468E-3,5.2115954E-3,-1.1522666E-2,-3.5751616E-3,-1.4531684E-2,-5.8799847E-3,-2.6935006E-2,-1.094675E-2,-2.739706E-2,6.618745E-3,-4.2013668E-2,-2.238067E-2,-3.7177786E-2,-4.5822393E-2,-6.809607E-2,-3.825549E-2,-2.3526559E-2,-2.5670413E-2,-5.7823225E-3,-6.842875E-2,-4.894393E-2,-4.499227E-2,-2.956141E-2,-5.0373405E-2,-6.9485515E-2,-3.498913E-2,-5.3657163E-2,-7.818876E-2,-6.058314E-2,-9.4911754E-2,-7.145243E-2],"categories":[],"categories_nodes":[],"categories_segments":[],"categories_sizes":[],"default_left":[0,0,0,0,0,0,0,0,0,0,0,0,0,0,0,0,0,0,0,0,0,0,0,0,0,0,0,0,0,0,0,0,0,0,0,0,0,0,0,0,0,0,0,0,0,0,0,0,0,0,0,0,0,0,0,0,0,0,0,0,0,0,0,0,0,0,0,0,0,0,0,0,0,0,0,0,0,0,0,0,0,0,0,0,0,0,0,0,0,0,0,0,0,0,0,0,0,0,0,0,0,0,0,0,0,0,0,0,0,0,0,0,0,0,0,0,0,0,0,0,0,0,0,0,0,0,0],"id":2,"left_children":[1,3,5,7,9,11,13,15,17,19,21,23,25,27,29,31,33,35,37,39,41,43,45,47,49,51,53,55,57,59,61,63,65,67,69,71,73,75,77,79,81,83,85,87,89,91,93,95,97,99,101,103,105,107,109,111,113,115,117,119,121,123,125,-1,-1,-1,-1,-1,-1,-1,-1,-1,-1,-1,-1,-1,-1,-1,-1,-1,-1,-1,-1,-1,-1,-1,-1,-1,-1,-1,-1,-1,-1,-1,-1,-1,-1,-1,-1,-1,-1,-1,-1,-1,-1,-1,-1,-1,-1,-1,-1,-1,-1,-1,-1,-1,-1,-1,-1,-1,-1,-1,-1,-1,-1,-1,-1],"loss_changes":[2.9574205E4,4.1797744E3,6.0668154E3,6.463467E2,6.6759644E2,1.6225793E3,2.1532266E3,9.353711E1,9.279785E1,4.20167E2,2.6304022E2,4.299202E2,3.4922534E2,9.220664E2,8.3886914E2,1.6104492E1,3.8975098E1,9.466455E1,5.856459E1,1.702732E2,1.5842218E2,1.4291455E2,8.333325E1,1.4889508E2,1.7388531E2,1.13007355E2,3.5900293E2,2.5098938E2,1.7432446E2,2.2043701E2,1.3679102E2,7.321167E0,1.3211792E1,6.584961E0,1.0677246E1,3.7740967E1,2.2487793E1,1.6834133E1,2.8922424E1,5.1664795E1,7.350806E1,3.1226776E1,9.369409E1,3.348417E1,4.0315063E1,2.42034E1,2.1078989E1,7.1110504E1,7.193659E1,9.877336E1,1.1042914E2,6.798569E1,2.2106392E1,1.0560278E2,7.72937E1,8.191235E1,1.19152985E2,7.4478516E1,4.312378E1,1.3369092E2,9.2236084E1,1.1228027E2,2.5925781E1,0E0,0E0,0E0,0E0,0E0,0E0,0E0,0E0,0E0,0E0,0E0,0E0,0E0,0E0,0E0,0E0,0E0,0E0,0E0,0E0,0E0,0E0,0E0,0E0,0E0,0E0,0E0,0E0,0E0,0E0,0E0,0E0,0E0,0E0,0E0,0E0,0E0,0E0,0E0,0E0,0E0,0E0,0E0,0E0,0E0,0E0,0E0,0E0,0E0,0E0,0E0,0E0,0E0,0E0,0E0,0E0,0E0,0E0,0E0,0E0,0E0,0E0,0E0,0E0],"parents":[2147483647,0,0,1,1,2,2,3,3,4,4,5,5,6,6,7,7,8,8,9,9,10,10,11,11,12,12,13,13,14,14,15,15,16,16,17,17,18,18,19,19,20,20,21,21,22,22,23,23,24,24,25,25,26,26,27,27,28,28,29,29,30,30,31,31,32,32,33,33,34,34,35,35,36,36,37,37,38,38,39,39,40,40,41,41,42,42,43,43,44,44,45,45,46,46,47,47,48,48,49,49,50,50,51,51,52,52,53,53,54,54,55,55,56,56,57,57,58,58,59,59,60,60,61,61,62,62],"right_children":[2,4,6,8,10,12,14,16,18,20,22,24,26,28,30,32,34,36,38,40,42,44,46,48,50,52,54,56,58,60,62,64,66,68,70,72,74,76,78,80,82,84,86,88,90,92,94,96,98,100,102,104,106,108,110,112,114,116,118,120,122,124,126,-1,-1,-1,-1,-1,-1,-1,-1,-1,-1,-1,-1,-1,-1,-1,-1,-1,-1,-1,-1,-1,-1,-1,-1,-1,-1,-1,-1,-1,-1,-1,-1,-1,-1,-1,-1,-1,-1,-1,-1,-1,-1,-1,-1,-1,-1,-1,-1,-1,-1,-1,-1,-1,-1,-1,-1,-1,-1,-1,-1,-1,-1,-1,-1],"split_conditions":[1.1623078E-2,-7.3472637E-1,6E1,-1.1224946E0,6E1,9.560262E-1,9.560262E-1,7.843402E-1,6E1,1E0,1E0,1E0,-8.656183E-1,1E0,1E0,-1.38503E-1,-1.3747523E0,3.0522704E-1,6.246358E-1,-3.9282328E-1,-3.9282328E-1,3.0522704E-1,4.6493143E-1,5.6617326E-1,5.6617326E-1,-8.2686804E-2,1.7127995E0,-1.418174E-2,-1.7388614E-1,-5.836156E-3,2.413284E0,1E0,-1.2350724E0,-8.15938E-1,2.885161E0,-1.0495274E0,1E0,-3.6607355E-1,1E0,-3.335905E-1,-6.529993E-1,-8.6462533E-1,-3.335905E-1,-3.2003358E-1,1.5828621E0,-5.491814E-1,-1.3639595E-1,-1.1308825E0,-9.768581E-1,-1.38503E-1,-1.0396088E0,-1.2164516E0,1E0,1E0,1E0,-3.6607355E-1,-4.3812102E-1,-2.4599442E-1,-1.7394695E-1,2.0088377E0,2.2339933E0,-1.9796276E-1,5.22512E-1,4.5574006E-2,3.9670803E-2,3.9609488E-2,3.184788E-2,4.470923E-2,5.2373726E-2,4.511288E-2,2.2156805E-2,3.2499086E-2,2.5227953E-2,3.8245365E-2,3.1962533E-2,-1.8095497E-2,7.2674626E-3,2.8815085E-2,5.752113E-3,2.0457828E-2,2.9617926E-2,9.190861E-3,1.8598167E-2,2.3320865E-2,1.3241786E-2,-1.2180399E-3,9.362297E-3,1.195894E-3,-1.3723554E-2,5.773112E-3,1.998656E-2,-8.412282E-3,-3.7108E-2,-4.086368E-3,-2.5189145E-2,1.6205618E-2,2.8011468E-3,5.2115954E-3,-1.1522666E-2,-3.5751616E-3,-1.4531684E-2,-5.8799847E-3,-2.6935006E-2,-1.094675E-2,-2.739706E-2,6.618745E-3,-4.2013668E-2,-2.238067E-2,-3.7177786E-2,-4.5822393E-2,-6.809607E-2,-3.825549E-2,-2.3526559E-2,-2.5670413E-2,-5.7823225E-3,-6.842875E-2,-4.894393E-2,-4.499227E-2,-2.956141E-2,-5.0373405E-2,-6.9485515E-2,-3.498913E-2,-5.3657163E-2,-7.818876E-2,-6.058314E-2,-9.4911754E-2,-7.145243E-2],"split_indices":[2,2,1,2,1,2,2,16,1,18,18,18,0,18,18,8,2,16,16,2,2,16,16,2,2,4,2,16,16,4,2,18,2,4,0,2,18,4,18,16,16,8,16,8,16,2,2,0,0,8,0,0,27,18,18,4,4,4,4,2,2,4,4,0,0,0,0,0,0,0,0,0,0,0,0,0,0,0,0,0,0,0,0,0,0,0,0,0,0,0,0,0,0,0,0,0,0,0,0,0,0,0,0,0,0,0,0,0,0,0,0,0,0,0,0,0,0,0,0,0,0,0,0,0,0,0,0],"split_type":[0,0,0,0,0,0,0,0,0,0,0,0,0,0,0,0,0,0,0,0,0,0,0,0,0,0,0,0,0,0,0,0,0,0,0,0,0,0,0,0,0,0,0,0,0,0,0,0,0,0,0,0,0,0,0,0,0,0,0,0,0,0,0,0,0,0,0,0,0,0,0,0,0,0,0,0,0,0,0,0,0,0,0,0,0,0,0,0,0,0,0,0,0,0,0,0,0,0,0,0,0,0,0,0,0,0,0,0,0,0,0,0,0,0,0,0,0,0,0,0,0,0,0,0,0,0,0],"sum_hessian":[1.2359086E5,6.4544863E4,5.9046E4,2.9246834E4,3.5298027E4,3.421669E4,2.4829307E4,1.3647604E4,1.559923E4,2.9826076E4,5.471952E3,2.4662973E4,9.55372E3,1.2172824E4,1.2656483E4,5.4289297E3,8.218674E3,1.422522E4,1.3740109E3,1.6699697E4,1.3126379E4,4.076711E3,1.3952413E3,1.2911391E4,1.1751582E4,3.1193706E3,6.4343496E3,8.276764E3,3.8960603E3,7.832699E3,4.8237837E3,2.4127417E3,3.0161877E3,4.5151665E3,3.7035076E3,7.80953E3,6.4156895E3,4.2419174E2,9.4981915E2,6.6089E3,1.0090797E4,4.7454917E3,8.380887E3,1.7135988E3,2.363112E3,7.703107E2,6.249306E2,9.342104E3,3.5692876E3,8.398067E3,3.353514E3,2.5558293E3,5.6354114E2,4.851933E3,1.5824164E3,4.3224893E3,3.9542742E3,2.0179038E3,1.8781565E3,4.2514346E3,3.5812646E3,3.784695E3,1.0390885E3,1.4512656E3,9.614761E2,2.2507734E3,7.6541437E2,3.5252252E2,4.1626436E3,3.6492258E3,5.4281734E1,2.8094211E3,5.000109E3,4.1799277E3,2.235762E3,7.972123E1,3.444705E2,7.8474774E2,1.6507144E2,2.4704646E3,4.138435E3,2.9289998E3,7.1617974E3,9.6724274E2,3.778249E3,4.3528696E3,4.0280176E3,5.5676697E2,1.1568318E3,1.6477198E3,7.153922E2,8.3029274E1,6.8728143E2,4.6721585E2,1.5771472E2,1.1239481E3,8.218155E3,8.389829E2,2.7303047E3,4.796153E3,3.6019146E3,8.2725586E2,2.526258E3,1.1189637E3,1.4368657E3,5.4010986E2,2.3431246E1,2.5615198E3,2.290413E3,8.0436127E2,7.780552E2,1.4014755E3,2.921014E3,1.01156366E3,2.9427104E3,1.1110577E3,9.068461E2,1.0832574E3,7.94899E2,2.8963403E3,1.3550944E3,2.69775E3,8.835146E2,2.1993213E3,1.5853737E3,8.836073E2,1.554812E2],"tree_param":{"num_deleted":"0","num_feature":"29","num_nodes":"127","size_leaf_vector":"1"}},{"base_weights":[-1.6861698E-3,-1.7426549E-1,3.6813506E-1,-4.2240857E-3,-4.5334107E-1,4.8470566E-1,1.1669413E-1,1.6414829E-1,-1.9359563E-1,-1.1548921E-1,-6.1034256E-1,3.8727796E-1,6.7960745E-1,-1.4961616E-2,3.5221243E-1,-6.3590775E-3,3.3814704E-1,-3.78337E-1,6.9223545E-3,-2.5890335E-1,5.6320563E-2,-4.5258045E-1,-8.484802E-1,4.8434815E-1,2.2971836E-1,7.406351E-1,2.5606683E-1,2.3966959E-1,-1.0348507E-1,4.520865E-1,1.2577243E-1,1.1179818E-1,-1.5694672E-1,4.4777024E-1,2.2102812E-1,-5.15232E-1,-1.5501232E-1,-1.4737517E-1,1.4242291E-1,-1.6351873E-1,-4.7028232E-1,1.742719E-1,-6.6154726E-2,-5.994005E-1,-2.5110212E-1,-7.110408E-1,-1.1351722E0,3.4385243E-1,5.6600446E-1,2.4047472E-2,3.3444625E-1,7.8438413E-1,3.721087E-1,-5.534077E-1,4.5318988E-1,3.2555705E-1,1.02672316E-1,2.205149E-2,-3.7807807E-1,5.5619514E-1,2.7050868E-1,3.4728575E-1,-3.1211924E-2,1.0336434E-3,1.4388079E-2,-2.7164763E-3,-1.7903998E-2,1.5202703E-2,2.6220758E-2,1.5743958E-2,4.349656E-3,-2.086705E-2,-3.519933E-2,-7.996992E-4,-1.834802E-2,-2.1959296E-3,-1.7844038E-2,-2.181648E-3,1.0792455E-2,-1.1799979E-2,2.8865396E-3,-3.2299455E-2,-1.6112428E-2,4.4023045E-3,1.5664088E-2,-1.2745397E-2,1.7596452E-3,-3.8813546E-2,-2.3047542E-2,-7.4765095E-3,-2.399425E-2,-4.2719796E-2,-2.3241771E-2,-6.4901315E-2,-4.3031897E-2,2.343809E-2,4.1092816E-3,3.4951147E-2,2.4401678E-2,9.943188E-3,-1.2259942E-2,2.3039734E-2,9.678631E-3,3.387849E-2,4.4703625E-2,-2.6082838E-2,2.332905E-2,-2.8754163E-3,-6.2234133E-2,2.4922151E-2,-1.7570196E-2,2.1087103E-2,9.994636E-3,1.0660002E-2,-3.1030443E-3,8.013851E-3,-5.8957427E-3,-1.2178898E-2,-3.69589E-2,3.6296394E-2,2.2511633E-2,5.8289203E-3,2.2998791E-2,-2.37603E-3,1.9750519E-2,6.5173055E-3,-1.636093E-2],"categories":[],"categories_nodes":[],"categories_segments":[],"categories_sizes":[],"default_left":[0,0,0,0,0,0,0,0,0,0,0,0,0,0,0,0,0,0,0,0,0,0,0,0,0,0,0,0,0,0,0,0,0,0,0,0,0,0,0,0,0,0,0,0,0,0,0,0,0,0,0,0,0,0,0,0,0,0,0,0,0,0,0,0,0,0,0,0,0,0,0,0,0,0,0,0,0,0,0,0,0,0,0,0,0,0,0,0,0,0,0,0,0,0,0,0,0,0,0,0,0,0,0,0,0,0,0,0,0,0,0,0,0,0,0,0,0,0,0,0,0,0,0,0,0,0,0],"id":3,"left_children":[1,3,5,7,9,11,13,15,17,19,21,23,25,27,29,31,33,35,37,39,41,43,45,47,49,51,53,55,57,59,61,63,65,67,69,71,73,75,77,79,81,83,85,87,89,91,93,95,97,99,101,103,105,107,109,111,113,115,117,119,121,123,125,-1,-1,-1,-1,-1,-1,-1,-1,-1,-1,-1,-1,-1,-1,-1,-1,-1,-1,-1,-1,-1,-1,-1,-1,-1,-1,-1,-1,-1,-1,-1,-1,-1,-1,-1,-1,-1,-1,-1,-1,-1,-1,-1,-1,-1,-1,-1,-1,-1,-1,-1,-1,-1,-1,-1,-1,-1,-1,-1,-1,-1,-1,-1,-1],"loss_changes":[7.88357E3,3.9965964E3,1.1518994E3,1.668701E3,1.6913013E3,5.0962988E2,3.8606003E2,8.2191345E2,9.124522E2,2.4931853E2,8.174878E2,2.737373E2,2.310957E2,1.8006079E2,1.0090613E2,2.4899792E2,1.7594128E2,3.9185718E2,2.4698776E2,1.1111478E2,6.652213E1,3.8726953E2,3.4096924E2,1.26901855E2,1.4705817E2,1.2579639E2,1.803147E2,2.421386E1,2.0433354E2,5.8405273E1,4.7573883E1,1.25729614E2,1.2697035E2,7.784253E1,8.338669E1,1.4655762E2,1.435898E2,1.1970699E2,8.593675E1,6.097724E1,4.4380127E1,2.8087494E1,4.32312E1,1.8514526E2,1.282602E2,2.0663525E2,1.2447461E2,1.331402E2,7.2309814E1,1.0853002E2,8.0434296E1,8.1288086E1,7.047625E1,7.5837875E1,3.3236603E1,1.5220032E1,1.44983225E1,7.873504E1,9.014218E1,3.506494E1,3.2924286E1,1.0709221E1,3.836725E1,0E0,0E0,0E0,0E0,0E0,0E0,0E0,0E0,0E0,0E0,0E0,0E0,0E0,0E0,0E0,0E0,0E0,0E0,0E0,0E0,0E0,0E0,0E0,0E0,0E0,0E0,0E0,0E0,0E0,0E0,0E0,0E0,0E0,0E0,0E0,0E0,0E0,0E0,0E0,0E0,0E0,0E0,0E0,0E0,0E0,0E0,0E0,0E0,0E0,0E0,0E0,0E0,0E0,0E0,0E0,0E0,0E0,0E0,0E0,0E0,0E0,0E0,0E0,0E0],"parents":[2147483647,0,0,1,1,2,2,3,3,4,4,5,5,6,6,7,7,8,8,9,9,10,10,11,11,12,12,13,13,14,14,15,15,16,16,17,17,18,18,19,19,20,20,21,21,22,22,23,23,24,24,25,25,26,26,27,27,28,28,29,29,30,30,31,31,32,32,33,33,34,34,35,35,36,36,37,37,38,38,39,39,40,40,41,41,42,42,43,43,44,44,45,45,46,46,47,47,48,48,49,49,50,50,51,51,52,52,53,53,54,54,55,55,56,56,57,57,58,58,59,59,60,60,61,61,62,62],"right_children":[2,4,6,8,10,12,14,16,18,20,22,24,26,28,30,32,34,36,38,40,42,44,46,48,50,52,54,56,58,60,62,64,66,68,70,72,74,76,78,80,82,84,86,88,90,92,94,96,98,100,102,104,106,108,110,112,114,116,118,120,122,124,126,-1,-1,-1,-1,-1,-1,-1,-1,-1,-1,-1,-1,-1,-1,-1,-1,-1,-1,-1,-1,-1,-1,-1,-1,-1,-1,-1,-1,-1,-1,-1,-1,-1,-1,-1,-1,-1,-1,-1,-1,-1,-1,-1,-1,-1,-1,-1,-1,-1,-1,-1,-1,-1,-1,-1,-1,-1,-1,-1,-1,-1,-1,-1,-1],"split_conditions":[3.0522704E-1,3.1511858E-1,4.3532908E-1,-2.8945294E-1,-5.632741E-1,1.4231578E0,1.103749E0,-3.3208808E-1,1.6890937E-1,-3.3208808E-1,1E0,3.7579527E-1,1.6215905E0,-5.632741E-1,1E0,3.7579527E-1,-5.4502845E-1,-3.335905E-1,-4.932949E-1,1E0,3.7579527E-1,-3.335905E-1,1.268633E0,-3.3208808E-1,-3.3208808E-1,1.4468396E0,-3.3208808E-1,3.7579527E-1,1E0,3.7579527E-1,-4.919665E-1,-3.335905E-1,-6.2317246E-1,1.6890937E-1,-5.832402E-1,6.175796E-1,3.7579527E-1,-2.4391864E-1,-2.5708836E-1,-1.7388614E-1,-6.529993E-1,-3.335905E-1,1.6890937E-1,1.6890937E-1,1.2884736E0,-3.335905E-1,-3.335905E-1,4.9971186E-2,-1.725085E-1,-1.3828085E-1,2.7245086E-1,1.6890937E-1,-1.09635E0,3.7579527E-1,2.517884E0,1.1869365E0,1E0,1.0398829E0,1.4296918E0,-2.8945294E-1,1.7425666E0,-1.1795177E0,3.7579527E-1,1.0336434E-3,1.4388079E-2,-2.7164763E-3,-1.7903998E-2,1.5202703E-2,2.6220758E-2,1.5743958E-2,4.349656E-3,-2.086705E-2,-3.519933E-2,-7.996992E-4,-1.834802E-2,-2.1959296E-3,-1.7844038E-2,-2.181648E-3,1.0792455E-2,-1.1799979E-2,2.8865396E-3,-3.2299455E-2,-1.6112428E-2,4.4023045E-3,1.5664088E-2,-1.2745397E-2,1.7596452E-3,-3.8813546E-2,-2.3047542E-2,-7.4765095E-3,-2.399425E-2,-4.2719796E-2,-2.3241771E-2,-6.4901315E-2,-4.3031897E-2,2.343809E-2,4.1092816E-3,3.4951147E-2,2.4401678E-2,9.943188E-3,-1.2259942E-2,2.3039734E-2,9.678631E-3,3.387849E-2,4.4703625E-2,-2.6082838E-2,2.332905E-2,-2.8754163E-3,-6.2234133E-2,2.4922151E-2,-1.7570196E-2,2.1087103E-2,9.994636E-3,1.0660002E-2,-3.1030443E-3,8.013851E-3,-5.8957427E-3,-1.2178898E-2,-3.69589E-2,3.6296394E-2,2.2511633E-2,5.8289203E-3,2.2998791E-2,-2.37603E-3,1.9750519E-2,6.5173055E-3,-1.636093E-2],"split_indices":[16,5,5,0,0,16,16,13,13,13,18,7,0,0,18,7,5,16,16,20,7,16,5,13,13,7,13,7,18,7,0,16,0,13,0,0,7,5,15,16,16,16,13,13,5,16,16,0,0,0,0,13,12,7,7,5,18,5,5,0,16,12,7,0,0,0,0,0,0,0,0,0,0,0,0,0,0,0,0,0,0,0,0,0,0,0,0,0,0,0,0,0,0,0,0,0,0,0,0,0,0,0,0,0,0,0,0,0,0,0,0,0,0,0,0,0,0,0,0,0,0,0,0,0,0,0,0],"split_type":[0,0,0,0,0,0,0,0,0,0,0,0,0,0,0,0,0,0,0,0,0,0,0,0,0,0,0,0,0,0,0,0,0,0,0,0,0,0,0,0,0,0,0,0,0,0,0,0,0,0,0,0,0,0,0,0,0,0,0,0,0,0,0,0,0,0,0,0,0,0,0,0,0,0,0,0,0,0,0,0,0,0,0,0,0,0,0,0,0,0,0,0,0,0,0,0,0,0,0,0,0,0,0,0,0,0,0,0,0,0,0,0,0,0,0,0,0,0,0,0,0,0,0,0,0,0,0],"sum_hessian":[1.2351943E5,8.4218766E4,3.9300668E4,5.2333098E4,3.1885666E4,2.6851232E4,1.2449435E4,2.7702566E4,2.463053E4,1.0116875E4,2.1768791E4,1.7904232E4,8.946999E3,7.986104E3,4.4633306E3,1.3992146E4,1.371042E4,1.2819121E4,1.1811409E4,5.513829E3,4.603046E3,1.309589E4,8.672901E3,1.1077483E4,6.8267505E3,7.8195396E3,1.1274597E3,2.0597312E3,5.926373E3,3.0965593E3,1.3667711E3,7.840458E3,6.151688E3,7.0803745E3,6.630046E3,7.9466343E3,4.8724873E3,5.5226064E3,6.2888027E3,3.800589E3,1.7132401E3,2.3446138E3,2.258432E3,7.574366E3,5.521523E3,5.864808E3,2.8080928E3,4.0736606E3,7.0038223E3,2.3037458E3,4.5230044E3,6.9887524E3,8.307873E2,2.2043764E2,9.0702203E2,1.2651786E3,7.945527E2,4.0676653E3,1.8587076E3,1.966813E3,1.1297462E3,5.663744E2,8.003968E2,5.166187E3,2.6742712E3,4.0742803E3,2.077408E3,2.4643877E3,4.615987E3,3.8987793E3,2.7312666E3,5.2349297E3,2.7117046E3,2.9431367E3,1.9293503E3,3.6977964E3,1.82481E3,1.7796702E3,4.5091323E3,2.8627063E3,9.378829E2,7.8185895E2,9.3138116E2,1.4480454E3,8.965683E2,7.884609E2,1.4699711E3,3.323705E3,4.250661E3,3.8250037E3,1.6965194E3,3.7050452E3,2.159763E3,1.7602083E3,1.0478846E3,2.7568555E3,1.316805E3,2.5853123E3,4.4185103E3,1.3969775E3,9.0676843E2,2.3832322E3,2.1397722E3,3.5444001E3,3.4443523E3,7.898827E1,7.517991E2,1.2898846E2,9.1449165E1,8.5908466E2,4.7937397E1,7.153131E2,5.4986554E2,4.753335E2,3.1921915E2,2.0464865E3,2.0211787E3,1.355496E3,5.0321173E2,7.5368896E2,1.213124E3,6.242208E2,5.0552536E2,6.1080925E1,5.0529343E2,5.1815283E2,2.8224396E2],"tree_param":{"num_deleted":"0","num_feature":"29","num_nodes":"127","size_leaf_vector":"1"}},{"base_weights":[3.0892382E-3,2.3004548E-1,-6.321985E-1,5.5116646E-2,5.3173685E-1,-1.0422952E0,-4.3886378E-1,2.0471907E-1,-1.3186537E-1,4.164798E-1,7.282874E-1,-1.3120698E0,-8.059975E-1,-6.082551E-1,-1.4711438E-2,4.171959E-2,3.472608E-1,-2.4708906E-1,9.022209E-2,5.0568336E-1,2.0194222E-1,5.607768E-1,8.215761E-1,-1.1426054E0,-1.5806869E0,-6.603813E-1,-1.0906783E0,-4.0743646E-1,-8.420775E-1,8.87697E-2,-3.294369E-1,1.5296298E-1,-1.0419594E-1,4.0243068E-1,1.040942E-1,-3.4116992E-1,-3.313441E-2,-9.282994E-2,1.5349062E-1,3.9092946E-1,6.6109556E-1,3.190942E-1,5.3735636E-3,6.7649376E-1,3.3672053E-1,8.653753E-1,6.3288593E-1,-1.2466546E0,-9.65413E-1,-1.5098568E0,-1.8901544E0,-8.560281E-1,-5.2171487E-1,-9.455985E-1,-1.3422122E0,-5.6478655E-1,-2.4024954E-1,-7.695266E-1,-1.2448572E0,-1.5456434E-1,1.812106E-1,-5.744693E-1,-1.966593E-1,3.8385335E-3,1.6332323E-2,-4.100052E-3,-3.304724E-2,1.4315456E-2,2.4183039E-2,-4.2740586E-3,1.1175299E-2,-1.2208722E-2,-2.6139373E-2,-5.213711E-3,9.438842E-3,-1.0598775E-2,2.6528088E-3,1.3076789E-2,2.1777018E-3,1.7590178E-3,2.2101935E-2,2.2936461E-2,3.5116054E-2,1.8493278E-2,5.7354583E-3,6.3151154E-3,-1.0706233E-2,3.4535352E-2,-5.2494206E-3,-3.6801454E-3,2.1999456E-2,4.0730357E-2,4.8607286E-2,3.6245655E-2,2.3527512E-2,-5.825114E-2,-8.026729E-2,-3.70496E-2,-5.4351147E-2,-8.044846E-2,-6.7334495E-2,-9.770557E-2,-5.447161E-2,-5.2453507E-2,-2.5292521E-2,-3.2569285E-2,-1.4142272E-2,-4.9759366E-2,1.3133584E-3,-7.090185E-2,-5.0918378E-2,-3.6200214E-2,-2.0915011E-2,-4.846709E-3,-1.8434837E-2,-4.6403702E-2,-2.953671E-2,-5.46752E-2,-7.593738E-2,-4.785256E-3,-3.256048E-2,1.467869E-2,7.0773304E-4,-3.376183E-2,-8.863269E-3,-6.666398E-3,-3.2490846E-2],"categories":[],"categories_nodes":[],"categories_segments":[],"categories_sizes":[],"default_left":[0,0,0,0,0,0,0,0,0,0,0,0,0,0,0,0,0,0,0,0,0,0,0,0,0,0,0,0,0,0,0,0,0,0,0,0,0,0,0,0,0,0,0,0,0,0,0,0,0,0,0,0,0,0,0,0,0,0,0,0,0,0,0,0,0,0,0,0,0,0,0,0,0,0,0,0,0,0,0,0,0,0,0,0,0,0,0,0,0,0,0,0,0,0,0,0,0,0,0,0,0,0,0,0,0,0,0,0,0,0,0,0,0,0,0,0,0,0,0,0,0,0,0,0,0,0,0],"id":4,"left_children":[1,3,5,7,9,11,13,15,17,19,21,23,25,27,29,31,33,35,37,39,41,43,45,47,49,51,53,55,57,59,61,63,65,67,69,71,73,75,77,79,81,83,85,87,89,91,93,95,97,99,101,103,105,107,109,111,113,115,117,119,121,123,125,-1,-1,-1,-1,-1,-1,-1,-1,-1,-1,-1,-1,-1,-1,-1,-1,-1,-1,-1,-1,-1,-1,-1,-1,-1,-1,-1,-1,-1,-1,-1,-1,-1,-1,-1,-1,-1,-1,-1,-1,-1,-1,-1,-1,-1,-1,-1,-1,-1,-1,-1,-1,-1,-1,-1,-1,-1,-1,-1,-1,-1,-1,-1,-1],"loss_changes":[1.780008E4,4.800333E3,2.5759658E3,1.6106241E3,7.559697E2,6.6258203E2,1.5868066E3,7.43155E2,6.549136E2,4.026687E2,1.9235547E2,2.1939648E2,2.2944067E2,7.407495E2,2.0534184E2,2.4225299E2,2.2887524E2,3.391659E2,1.0126847E2,2.6483936E2,1.4237276E2,1.1428589E2,6.493115E1,5.379663E1,3.829248E1,9.92771E1,6.724072E1,2.23276E2,2.1210596E2,1.06761986E2,5.0644547E1,1.1203613E2,7.972506E1,1.3104785E2,7.14824E1,2.0604431E2,8.128209E1,3.9054874E1,7.71673E1,1.5550024E2,5.2339355E1,4.015567E1,6.1336376E1,3.241211E1,6.385585E1,3.4049316E1,2.2013306E1,5.3062744E1,2.943689E1,2.2616943E1,1.5572388E1,1.0242908E2,6.6526E1,5.7570312E1,1.5360474E1,1.0171814E2,7.579413E1,1.7466357E2,4.4405518E1,3.8140163E1,6.455151E1,2.1804535E1,2.8995216E1,0E0,0E0,0E0,0E0,0E0,0E0,0E0,0E0,0E0,0E0,0E0,0E0,0E0,0E0,0E0,0E0,0E0,0E0,0E0,0E0,0E0,0E0,0E0,0E0,0E0,0E0,0E0,0E0,0E0,0E0,0E0,0E0,0E0,0E0,0E0,0E0,0E0,0E0,0E0,0E0,0E0,0E0,0E0,0E0,0E0,0E0,0E0,0E0,0E0,0E0,0E0,0E0,0E0,0E0,0E0,0E0,0E0,0E0,0E0,0E0,0E0,0E0,0E0,0E0],"parents":[2147483647,0,0,1,1,2,2,3,3,4,4,5,5,6,6,7,7,8,8,9,9,10,10,11,11,12,12,13,13,14,14,15,15,16,16,17,17,18,18,19,19,20,20,21,21,22,22,23,23,24,24,25,25,26,26,27,27,28,28,29,29,30,30,31,31,32,32,33,33,34,34,35,35,36,36,37,37,38,38,39,39,40,40,41,41,42,42,43,43,44,44,45,45,46,46,47,47,48,48,49,49,50,50,51,51,52,52,53,53,54,54,55,55,56,56,57,57,58,58,59,59,60,60,61,61,62,62],"right_children":[2,4,6,8,10,12,14,16,18,20,22,24,26,28,30,32,34,36,38,40,42,44,46,48,50,52,54,56,58,60,62,64,66,68,70,72,74,76,78,80,82,84,86,88,90,92,94,96,98,100,102,104,106,108,110,112,114,116,118,120,122,124,126,-1,-1,-1,-1,-1,-1,-1,-1,-1,-1,-1,-1,-1,-1,-1,-1,-1,-1,-1,-1,-1,-1,-1,-1,-1,-1,-1,-1,-1,-1,-1,-1,-1,-1,-1,-1,-1,-1,-1,-1,-1,-1,-1,-1,-1,-1,-1,-1,-1,-1,-1,-1,-1,-1,-1,-1,-1,-1,-1,-1,-1,-1,-1,-1],"split_conditions":[6E1,1.4552265E-1,-3.3208808E-1,8.170011E-2,1.103749E0,-3.335905E-1,4.6493143E-1,-3.3208808E-1,1.6890937E-1,5.7538015E-1,-3.3208808E-1,5.22861E-1,7.1076286E-1,1.7856877E-1,7.539453E-1,3.7579527E-1,1.4468396E0,-3.335905E-1,-3.5930985E-1,1.6890937E-1,1E0,3.7579527E-1,6.419044E-1,-1.21908166E-1,1.7693156E0,-5.0184566E-1,1.5137224E0,6.6990685E-1,1E0,-2.4599442E-1,7.843402E-1,-3.335905E-1,1.2422341E0,-2.0054826E-1,-1.7770755E-1,1E0,1E0,-4.932949E-1,3.7579527E-1,-9.222273E-1,-4.8615268E-1,1.6654444E0,3.7579527E-1,1E0,-1.0186827E0,2.3813841E0,3.7579527E-1,6.746257E-1,-4.3999016E-1,-6.529993E-1,1.5766008E0,9.440446E-1,4.6493143E-1,1.9022709E0,9.440446E-1,-4.932949E-1,-5.660361E-1,-3.335905E-1,1.1869365E0,1E0,3.7579527E-1,5.705437E-1,1.4468396E0,3.8385335E-3,1.6332323E-2,-4.100052E-3,-3.304724E-2,1.4315456E-2,2.4183039E-2,-4.2740586E-3,1.1175299E-2,-1.2208722E-2,-2.6139373E-2,-5.213711E-3,9.438842E-3,-1.0598775E-2,2.6528088E-3,1.3076789E-2,2.1777018E-3,1.7590178E-3,2.2101935E-2,2.2936461E-2,3.5116054E-2,1.8493278E-2,5.7354583E-3,6.3151154E-3,-1.0706233E-2,3.4535352E-2,-5.2494206E-3,-3.6801454E-3,2.1999456E-2,4.0730357E-2,4.8607286E-2,3.6245655E-2,2.3527512E-2,-5.825114E-2,-8.026729E-2,-3.70496E-2,-5.4351147E-2,-8.044846E-2,-6.7334495E-2,-9.770557E-2,-5.447161E-2,-5.2453507E-2,-2.5292521E-2,-3.2569285E-2,-1.4142272E-2,-4.9759366E-2,1.3133584E-3,-7.090185E-2,-5.0918378E-2,-3.6200214E-2,-2.0915011E-2,-4.846709E-3,-1.8434837E-2,-4.6403702E-2,-2.953671E-2,-5.46752E-2,-7.593738E-2,-4.785256E-3,-3.256048E-2,1.467869E-2,7.0773304E-4,-3.376183E-2,-8.863269E-3,-6.666398E-3,-3.2490846E-2],"split_indices":[1,16,13,5,16,16,16,13,13,5,13,5,5,5,5,7,7,16,15,13,18,7,5,10,5,10,5,13,18,4,16,16,0,15,15,20,21,16,7,10,4,5,7,28,10,16,7,0,5,16,10,16,16,16,16,16,5,16,5,18,7,4,7,0,0,0,0,0,0,0,0,0,0,0,0,0,0,0,0,0,0,0,0,0,0,0,0,0,0,0,0,0,0,0,0,0,0,0,0,0,0,0,0,0,0,0,0,0,0,0,0,0,0,0,0,0,0,0,0,0,0,0,0,0,0,0,0],"split_type":[0,0,0,0,0,0,0,0,0,0,0,0,0,0,0,0,0,0,0,0,0,0,0,0,0,0,0,0,0,0,0,0,0,0,0,0,0,0,0,0,0,0,0,0,0,0,0,0,0,0,0,0,0,0,0,0,0,0,0,0,0,0,0,0,0,0,0,0,0,0,0,0,0,0,0,0,0,0,0,0,0,0,0,0,0,0,0,0,0,0,0,0,0,0,0,0,0,0,0,0,0,0,0,0,0,0,0,0,0,0,0,0,0,0,0,0,0,0,0,0,0,0,0,0,0,0,0],"sum_hessian":[1.2345317E5,9.095882E4,3.2494354E4,5.757592E4,3.3382895E4,1.0409532E4,2.2084822E4,3.1984973E4,2.559095E4,2.1045152E4,1.2337743E4,4.858344E3,5.551188E3,1.578173E4,6.3030923E3,1.49223E4,1.7062674E4,1.6849143E4,8.741806E3,1.4863594E4,6.1815586E3,4.415759E3,7.9219844E3,2.982199E3,1.8761453E3,3.6748152E3,1.8763724E3,8.491522E3,7.290208E3,4.7439937E3,1.5590983E3,8.467092E3,6.455208E3,1.3906823E4,3.15585E3,1.1702629E4,5.146515E3,2.2452517E3,6.496554E3,8.552257E3,6.3113364E3,3.8728025E3,2.3087559E3,2.9105479E3,1.5052112E3,6.426635E3,1.4953497E3,1.8750907E3,1.1071083E3,1.5314985E3,3.4464682E2,1.5220947E3,2.1527205E3,1.1930208E3,6.8335175E2,4.3732266E3,4.1182954E3,6.1799517E3,1.1102565E3,1.3058656E3,3.4381282E3,5.4676056E2,1.0123377E3,5.8863027E3,2.5807896E3,6.2088384E3,2.4636928E2,5.72592E3,8.1809033E3,1.2197258E3,1.9361244E3,7.6300386E3,4.0725898E3,3.8975706E3,1.2489443E3,1.2356447E3,1.009607E3,3.275767E3,3.220787E3,1.0745402E3,7.477717E3,1.0701829E3,5.241154E3,3.1015388E3,7.7126385E2,1.488898E3,8.198579E2,2.8586719E3,5.187596E1,3.027125E2,1.2024987E3,4.361446E3,2.0651887E3,9.5212836E2,5.4322144E2,1.5309263E3,3.4416446E2,3.9157736E2,7.155309E2,9.472502E2,5.842483E2,3.1782068E2,2.6826134E1,9.799067E2,5.4218805E2,1.3941669E3,7.5855365E2,1.1350801E3,5.7940685E1,5.509695E2,1.3238222E2,2.09366E3,2.2795667E3,1.9473209E3,2.1709746E3,3.2731963E3,2.9067554E3,7.1830817E2,3.9194827E2,1.1685673E3,1.3729842E2,2.0550962E3,1.3830319E3,4.3556216E2,1.11198425E2,8.8934143E2,1.22996254E2],"tree_param":{"num_deleted":"0","num_feature":"29","num_nodes":"127","size_leaf_vector":"1"}},{"base_weights":[6.858419E-4,4.9901432E-1,-3.9474416E-1,7.596538E-1,3.1676194E-1,-1.8560414E-1,-8.0499136E-1,9.12124E-1,6.6133773E-1,4.670259E-1,2.4770787E-1,-3.925376E-2,-3.1553623E-1,-3.5287392E-1,-9.0490633E-1,9.630355E-1,8.5576504E-1,7.319827E-1,5.82875E-1,5.161216E-1,3.4291875E-1,3.3134308E-1,1.3120317E-1,5.9297405E-2,-1.7098287E-1,-9.236761E-2,-4.0980017E-1,-4.3435398E-1,-9.425244E-3,-7.884638E-1,-1.2005019E0,9.7754174E-1,8.172064E-1,8.9679784E-1,7.6662576E-1,7.933382E-1,6.604833E-1,6.3888586E-1,4.746471E-1,5.224514E-1,-1.739266E-1,4.1553342E-1,2.1638197E-1,4.206587E-1,2.4292263E-1,2.3322468E-1,1.220665E-2,1.8589415E-1,-2.0500567E-2,-9.953606E-3,-2.8108E-1,-1.7946403E-1,1.2633626E-1,-2.82421E-1,-6.173282E-1,-1.9528656E-1,-5.5537313E-1,-1.8757148E-1,2.2332396E-1,-6.5070426E-1,-9.9002147E-1,-1.0334648E0,-1.4278305E0,4.9301177E-2,4.160936E-2,2.5602711E-2,4.2172577E-2,4.6845935E-2,4.134919E-2,4.2117987E-2,3.4853254E-2,3.9832827E-2,1.3551148E-2,3.5265666E-2,2.9164225E-2,3.5283756E-2,2.8200729E-2,2.531532E-2,1.5808186E-2,2.8452659E-2,2.2496937E-2,-1.513434E-1,-3.3138716E-3,2.464966E-2,1.6505966E-2,1.395874E-2,-7.7570714E-3,2.5373477E-2,1.6173746E-2,2.5278196E-2,1.1110596E-2,1.8654786E-2,8.081256E-3,3.7862398E-3,-6.7402455E-3,1.8735414E-2,5.9676715E-3,5.9703505E-3,-3.7519764E-3,4.19748E-3,-9.791657E-3,-9.413945E-3,-2.1668518E-2,8.6273387E-4,-1.3850055E-2,1.2487456E-2,-2.3932767E-3,-2.0420201E-2,-8.984039E-3,-2.2852166E-2,-3.8108893E-2,-4.2940485E-3,-2.2203563E-2,-2.4690634E-2,-5.384127E-2,1.6756788E-2,-1.5238456E-2,-1.3723395E-2,1.4268788E-2,-2.7635885E-2,-4.331361E-2,-3.8348906E-2,-5.7965126E-2,-4.565857E-2,-6.1304428E-2,-6.687807E-2,-8.486657E-2],"categories":[],"categories_nodes":[],"categories_segments":[],"categories_sizes":[],"default_left":[0,0,0,0,0,0,0,0,0,0,0,0,0,0,0,0,0,0,0,0,0,0,0,0,0,0,0,0,0,0,0,0,0,0,0,0,0,0,0,0,0,0,0,0,0,0,0,0,0,0,0,0,0,0,0,0,0,0,0,0,0,0,0,0,0,0,0,0,0,0,0,0,0,0,0,0,0,0,0,0,0,0,0,0,0,0,0,0,0,0,0,0,0,0,0,0,0,0,0,0,0,0,0,0,0,0,0,0,0,0,0,0,0,0,0,0,0,0,0,0,0,0,0,0,0,0,0],"id":5,"left_children":[1,3,5,7,9,11,13,15,17,19,21,23,25,27,29,31,33,35,37,39,41,43,45,47,49,51,53,55,57,59,61,63,65,67,69,71,73,75,77,79,81,83,85,87,89,91,93,95,97,99,101,103,105,107,109,111,113,115,117,119,121,123,125,-1,-1,-1,-1,-1,-1,-1,-1,-1,-1,-1,-1,-1,-1,-1,-1,-1,-1,-1,-1,-1,-1,-1,-1,-1,-1,-1,-1,-1,-1,-1,-1,-1,-1,-1,-1,-1,-1,-1,-1,-1,-1,-1,-1,-1,-1,-1,-1,-1,-1,-1,-1,-1,-1,-1,-1,-1,-1,-1,-1,-1,-1,-1,-1],"loss_changes":[2.4313844E4,2.5929316E3,5.902495E3,3.3613184E2,3.3325537E2,8.664901E2,1.0490176E3,2.4436035E1,7.529541E1,6.1452637E1,2.1446216E2,2.782308E2,5.0774316E2,1.17697205E2,6.538633E2,8.969238E0,1.4628174E1,3.0994385E1,3.8960938E1,3.1738403E1,2.6281342E1,1.0109619E2,1.1170033E2,1.23858246E2,1.6260599E2,1.3658371E2,4.4841333E2,9.824414E1,3.3524433E1,3.7839062E2,2.0260059E2,4.351074E0,2.9627075E0,7.2404785E0,6.402649E0,6.477051E0,1.1092407E1,2.0931519E1,1.09427185E1,2.4006592E1,2.0256176E1,1.1895111E1,2.4505302E1,5.3606445E1,3.492758E1,4.9550873E1,3.9680084E1,5.9510742E1,5.7396973E1,6.504441E1,7.690558E1,9.839206E1,4.3922638E1,1.3605627E2,1.4948169E2,3.110107E1,7.1901245E1,2.8156712E1,1.09067955E1,1.7086108E2,2.0829199E2,7.074878E1,5.3043457E1,0E0,0E0,0E0,0E0,0E0,0E0,0E0,0E0,0E0,0E0,0E0,0E0,0E0,0E0,0E0,0E0,0E0,0E0,0E0,0E0,0E0,0E0,0E0,0E0,0E0,0E0,0E0,0E0,0E0,0E0,0E0,0E0,0E0,0E0,0E0,0E0,0E0,0E0,0E0,0E0,0E0,0E0,0E0,0E0,0E0,0E0,0E0,0E0,0E0,0E0,0E0,0E0,0E0,0E0,0E0,0E0,0E0,0E0,0E0,0E0,0E0,0E0,0E0,0E0],"parents":[2147483647,0,0,1,1,2,2,3,3,4,4,5,5,6,6,7,7,8,8,9,9,10,10,11,11,12,12,13,13,14,14,15,15,16,16,17,17,18,18,19,19,20,20,21,21,22,22,23,23,24,24,25,25,26,26,27,27,28,28,29,29,30,30,31,31,32,32,33,33,34,34,35,35,36,36,37,37,38,38,39,39,40,40,41,41,42,42,43,43,44,44,45,45,46,46,47,47,48,48,49,49,50,50,51,51,52,52,53,53,54,54,55,55,56,56,57,57,58,58,59,59,60,60,61,61,62,62],"right_children":[2,4,6,8,10,12,14,16,18,20,22,24,26,28,30,32,34,36,38,40,42,44,46,48,50,52,54,56,58,60,62,64,66,68,70,72,74,76,78,80,82,84,86,88,90,92,94,96,98,100,102,104,106,108,110,112,114,116,118,120,122,124,126,-1,-1,-1,-1,-1,-1,-1,-1,-1,-1,-1,-1,-1,-1,-1,-1,-1,-1,-1,-1,-1,-1,-1,-1,-1,-1,-1,-1,-1,-1,-1,-1,-1,-1,-1,-1,-1,-1,-1,-1,-1,-1,-1,-1,-1,-1,-1,-1,-1,-1,-1,-1,-1,-1,-1,-1,-1,-1,-1,-1,-1,-1,-1,-1],"split_conditions":[-1.4265028E-1,-8.931693E-1,9.560262E-1,-1.2642592E0,-5.9504646E-1,2.4720266E-1,-6.8307084E-1,-1.414363E0,-2.0190333E-1,4.1082016E-1,1E0,1E0,-5.376034E-1,-1.2591529E-1,2.0088377E0,7.679504E-1,1E0,-1.1079011E0,1E0,2.885161E0,1E0,-7.7024445E-2,-4.5512956E-2,-2.7543014E-1,-5.832402E-1,-3.4205773E-1,1E0,-1.2164516E0,-4.0663343E-2,1E0,1E0,1.2944671E0,-8.498233E-1,4.0608874E-1,-4.6099782E-1,1E0,1E0,-1.1058164E0,1.1322111E0,1E0,-1.5335466E0,4.0608874E-1,1.2944671E0,-1.3828085E-1,-1.1651101E0,-7.6578766E-1,2.4300452E-2,-6.8307084E-1,-5.832402E-1,3.9798212E-1,3.3846042E-1,-1.108064E0,-1.4001462E-2,-1.3165171E-1,7.0029184E-2,7.24768E-1,2.338232E0,-1.31343E0,-1.0837117E0,8.1346697E-1,4.785443E-2,6.9792485E-1,1.1134098E0,4.9301177E-2,4.160936E-2,2.5602711E-2,4.2172577E-2,4.6845935E-2,4.134919E-2,4.2117987E-2,3.4853254E-2,3.9832827E-2,1.3551148E-2,3.5265666E-2,2.9164225E-2,3.5283756E-2,2.8200729E-2,2.531532E-2,1.5808186E-2,2.8452659E-2,2.2496937E-2,-1.513434E-1,-3.3138716E-3,2.464966E-2,1.6505966E-2,1.395874E-2,-7.7570714E-3,2.5373477E-2,1.6173746E-2,2.5278196E-2,1.1110596E-2,1.8654786E-2,8.081256E-3,3.7862398E-3,-6.7402455E-3,1.8735414E-2,5.9676715E-3,5.9703505E-3,-3.7519764E-3,4.19748E-3,-9.791657E-3,-9.413945E-3,-2.1668518E-2,8.6273387E-4,-1.3850055E-2,1.2487456E-2,-2.3932767E-3,-2.0420201E-2,-8.984039E-3,-2.2852166E-2,-3.8108893E-2,-4.2940485E-3,-2.2203563E-2,-2.4690634E-2,-5.384127E-2,1.6756788E-2,-1.5238456E-2,-1.3723395E-2,1.4268788E-2,-2.7635885E-2,-4.331361E-2,-3.8348906E-2,-5.7965126E-2,-4.565857E-2,-6.1304428E-2,-6.687807E-2,-8.486657E-2],"split_indices":[2,2,2,2,2,2,0,2,5,5,18,18,0,4,2,5,18,2,18,0,18,5,5,5,0,4,18,0,15,18,18,9,15,8,5,27,18,2,8,18,15,8,9,0,0,0,0,0,0,5,5,0,5,15,5,5,2,0,3,5,5,5,5,0,0,0,0,0,0,0,0,0,0,0,0,0,0,0,0,0,0,0,0,0,0,0,0,0,0,0,0,0,0,0,0,0,0,0,0,0,0,0,0,0,0,0,0,0,0,0,0,0,0,0,0,0,0,0,0,0,0,0,0,0,0,0,0],"split_type":[0,0,0,0,0,0,0,0,0,0,0,0,0,0,0,0,0,0,0,0,0,0,0,0,0,0,0,0,0,0,0,0,0,0,0,0,0,0,0,0,0,0,0,0,0,0,0,0,0,0,0,0,0,0,0,0,0,0,0,0,0,0,0,0,0,0,0,0,0,0,0,0,0,0,0,0,0,0,0,0,0,0,0,0,0,0,0,0,0,0,0,0,0,0,0,0,0,0,0,0,0,0,0,0,0,0,0,0,0,0,0,0,0,0,0,0,0,0,0,0,0,0,0,0,0,0,0],"sum_hessian":[1.23384695E5,5.458959E4,6.879511E4,2.2462604E4,3.2126984E4,4.5566965E4,2.322814E4,8.8028E3,1.3659805E4,1.0113626E4,2.2013357E4,2.1430168E4,2.4136799E4,4.204991E3,1.9023148E4,4.616458E3,4.1863423E3,7.18361E3,6.476195E3,7.244576E3,2.8690503E3,1.281326E4,9.200099E3,1.2259188E4,9.1709795E3,7.1681895E3,1.696861E4,3.3984707E3,8.065206E2,1.364981E4,5.37334E3,4.1936E3,4.2285757E2,2.8605195E3,1.3258225E3,3.8606196E3,3.3229902E3,4.2643687E3,2.2118262E3,7.178967E3,6.5609146E1,1.8214847E3,1.0475654E3,6.372494E3,6.440766E3,4.9528335E3,4.2472646E3,4.7392314E3,7.519957E3,3.7245312E3,5.446448E3,5.126712E3,2.0414773E3,1.0516202E4,6.4524067E3,1.1430486E3,2.255422E3,4.569586E2,3.49562E2,8.1106313E3,5.539178E3,3.1006099E3,2.27273E3,3.9569197E3,2.3668044E2,3.511264E1,3.8774493E2,1.8086837E3,1.0518359E3,6.294266E2,6.963959E2,3.8357258E3,2.4893854E1,2.0970686E3,1.2259218E3,2.2493777E3,2.0149907E3,1.8417214E3,3.701048E2,4.3661333E3,2.8128335E3,1.3995693E0,6.420958E1,9.527185E2,8.6876624E2,8.963226E2,1.5124292E2,3.3636462E3,3.008848E3,4.690562E2,5.9717095E3,1.6755004E3,3.277333E3,2.9661768E3,1.281088E3,1.2337488E3,3.5054827E3,2.108887E3,5.4110703E3,2.4748347E3,1.2496965E3,3.3856013E3,2.0608472E3,1.699626E3,3.4270862E3,1.1946774E3,8.468E2,4.7224375E3,5.793764E3,3.0649778E3,3.3874287E3,7.948503E2,3.4819824E2,2.0190131E3,2.3640918E2,8.335072E1,3.7360788E2,3.836524E1,3.1119675E2,5.578489E3,2.532143E3,2.3924438E3,3.1467341E3,1.9121897E3,1.18842E3,1.7069513E3,5.657786E2],"tree_param":{"num_deleted":"0","num_feature":"29","num_nodes":"127","size_leaf_vector":"1"}},{"base_weights":[2.4592683E-3,2.1266745E-1,-5.605947E-1,4.8871823E-2,5.026282E-1,-7.4993986E-1,-2.3447844E-1,1.5444006E-1,-1.8068358E-1,3.939245E-1,6.9236547E-1,-9.5993227E-1,-5.013553E-1,-5.928149E-1,-9.3682215E-2,4.6740465E-2,3.488116E-1,-3.6821816E-2,-3.49099E-1,4.9538988E-1,2.2088788E-1,5.311497E-1,7.837747E-1,-8.4894013E-1,-1.2743305E0,-2.596738E-1,-6.6985387E-1,-5.035997E-1,-9.382949E-1,3.3441424E-2,-3.153805E-1,1.502812E-1,-8.144901E-2,4.4889563E-1,2.4028012E-1,-1.5280025E-1,9.5582604E-2,-4.2484957E-1,-1.669135E-1,2.8406727E-1,5.7273215E-1,3.1356415E-1,7.006206E-2,5.844782E-1,7.713915E-2,8.201637E-1,5.579158E-1,-9.4744706E-1,-6.780845E-1,-1.1215233E0,-1.3909233E0,-2.0479628E-1,-5.579888E-1,-5.751538E-1,-8.645003E-1,-3.6698657E-1,-7.158573E-1,-1.3109231E0,-8.036601E-1,-1.21504106E-1,1.8077625E-1,-3.9426455E-1,4.2914506E-2,3.993254E-3,1.5484947E-2,-4.7756528E-4,-1.0425865E-2,1.3893205E-2,2.518597E-2,1.3747293E-2,-7.301199E-3,-1.5994372E-3,-1.380087E-2,-1.5526613E-3,1.0535788E-2,-1.6655762E-2,-2.9381951E-2,-5.2035074E-3,-1.9803192E-2,1.667712E-2,-9.583268E-3,2.1157442E-2,3.1341936E-2,2.0518512E-2,9.536385E-3,9.4554275E-3,-7.0129796E-3,1.9458141E-2,3.23518E-2,8.025672E-3,-6.7026876E-2,3.649617E-2,4.453079E-2,3.3282083E-2,1.8603284E-2,-5.5247106E-2,-4.1295037E-2,-3.0737111E-2,-4.7293574E-2,-5.9820462E-2,-4.263039E-2,-7.696154E-2,-6.411033E-2,-1.7428994E-2,-5.137664E-3,-4.915426E-2,-1.932661E-2,-4.0045E-2,-2.477535E-2,-5.311681E-2,-3.719748E-2,-2.4495369E-2,-8.739276E-4,-3.1715777E-2,-5.977139E-2,-6.891822E-2,-4.968379E-3,-4.288145E-2,2.231137E-3,-1.2143482E-2,1.5042982E-3,1.1897413E-2,-8.8391295E-3,-1.6847795E-2,-4.252007E-2,-1.2505362E-2,6.816735E-3],"categories":[],"categories_nodes":[],"categories_segments":[],"categories_sizes":[],"default_left":[0,0,0,0,0,0,0,0,0,0,0,0,0,0,0,0,0,0,0,0,0,0,0,0,0,0,0,0,0,0,0,0,0,0,0,0,0,0,0,0,0,0,0,0,0,0,0,0,0,0,0,0,0,0,0,0,0,0,0,0,0,0,0,0,0,0,0,0,0,0,0,0,0,0,0,0,0,0,0,0,0,0,0,0,0,0,0,0,0,0,0,0,0,0,0,0,0,0,0,0,0,0,0,0,0,0,0,0,0,0,0,0,0,0,0,0,0,0,0,0,0,0,0,0,0,0,0],"id":6,"left_children":[1,3,5,7,9,11,13,15,17,19,21,23,25,27,29,31,33,35,37,39,41,43,45,47,49,51,53,55,57,59,61,63,65,67,69,71,73,75,77,79,81,83,85,87,89,91,93,95,97,99,101,103,105,107,109,111,113,115,117,119,121,123,125,-1,-1,-1,-1,-1,-1,-1,-1,-1,-1,-1,-1,-1,-1,-1,-1,-1,-1,-1,-1,-1,-1,-1,-1,-1,-1,-1,-1,-1,-1,-1,-1,-1,-1,-1,-1,-1,-1,-1,-1,-1,-1,-1,-1,-1,-1,-1,-1,-1,-1,-1,-1,-1,-1,-1,-1,-1,-1,-1,-1,-1,-1,-1,-1],"loss_changes":[1.4584885E4,4.2615312E3,2.0683125E3,1.3895721E3,6.677666E2,1.1058135E3,6.208389E2,8.2220123E2,4.376283E2,3.614702E2,1.7341992E2,3.9977246E2,3.9511792E2,1.065188E2,2.490441E2,3.3547693E2,1.520033E2,1.4962509E2,1.1476813E2,2.1200366E2,1.06408905E2,1.0337305E2,6.139453E1,1.4229883E2,5.180371E1,6.519086E1,1.0491626E2,7.979816E1,3.4630005E1,1.2824973E2,9.103641E1,1.5692932E2,1.0317644E2,6.816077E1,9.0036896E1,7.7308105E1,6.6343216E1,8.756531E1,3.5174446E1,8.197336E1,7.6639404E1,5.60007E1,7.26175E1,4.645056E1,5.342046E1,4.0543457E1,2.0722046E1,1.02163574E2,5.2161377E1,2.5188599E1,2.535205E1,4.9422318E1,4.475319E1,6.882654E1,4.3800293E1,7.224779E1,4.1479614E1,1.5158661E1,2.40766E1,5.0386837E1,5.8907234E1,6.8708374E1,1.5965292E1,0E0,0E0,0E0,0E0,0E0,0E0,0E0,0E0,0E0,0E0,0E0,0E0,0E0,0E0,0E0,0E0,0E0,0E0,0E0,0E0,0E0,0E0,0E0,0E0,0E0,0E0,0E0,0E0,0E0,0E0,0E0,0E0,0E0,0E0,0E0,0E0,0E0,0E0,0E0,0E0,0E0,0E0,0E0,0E0,0E0,0E0,0E0,0E0,0E0,0E0,0E0,0E0,0E0,0E0,0E0,0E0,0E0,0E0,0E0,0E0,0E0,0E0,0E0,0E0],"parents":[2147483647,0,0,1,1,2,2,3,3,4,4,5,5,6,6,7,7,8,8,9,9,10,10,11,11,12,12,13,13,14,14,15,15,16,16,17,17,18,18,19,19,20,20,21,21,22,22,23,23,24,24,25,25,26,26,27,27,28,28,29,29,30,30,31,31,32,32,33,33,34,34,35,35,36,36,37,37,38,38,39,39,40,40,41,41,42,42,43,43,44,44,45,45,46,46,47,47,48,48,49,49,50,50,51,51,52,52,53,53,54,54,55,55,56,56,57,57,58,58,59,59,60,60,61,61,62,62],"right_children":[2,4,6,8,10,12,14,16,18,20,22,24,26,28,30,32,34,36,38,40,42,44,46,48,50,52,54,56,58,60,62,64,66,68,70,72,74,76,78,80,82,84,86,88,90,92,94,96,98,100,102,104,106,108,110,112,114,116,118,120,122,124,126,-1,-1,-1,-1,-1,-1,-1,-1,-1,-1,-1,-1,-1,-1,-1,-1,-1,-1,-1,-1,-1,-1,-1,-1,-1,-1,-1,-1,-1,-1,-1,-1,-1,-1,-1,-1,-1,-1,-1,-1,-1,-1,-1,-1,-1,-1,-1,-1,-1,-1,-1,-1,-1,-1,-1,-1,-1,-1,-1,-1,-1,-1,-1,-1],"split_conditions":[6E1,1.4552265E-1,1.4552265E-1,4.7267604E-1,1.103749E0,1.6890937E-1,-3.3208808E-1,1.6890937E-1,1E0,3.5013133E-1,-3.3208808E-1,9.0683436E-1,-1.7039183E-1,1.1495895E0,4.3532908E-1,3.7579527E-1,3.7579527E-1,-4.932949E-1,-3.335905E-1,-6.906599E-1,1E0,1.4468396E0,8.753229E-1,-3.3208808E-1,1E0,1E0,9.885308E-1,3.7579527E-1,-5.308195E-1,7.843402E-1,1.4231578E0,-3.335905E-1,1.4468396E0,-4.1659883E-1,1.6215905E0,3.7579527E-1,-8.5970305E-2,1.268633E0,1.572077E0,4.1506603E-1,-3.900894E-1,1.0760628E0,3.7579527E-1,-9.5135015E-1,1.7727625E0,1.7425666E0,3.7579527E-1,-6.529993E-1,1.4468396E0,-1.7388614E-1,-6.529993E-1,-6.529993E-1,-2.5708836E-1,-8.1270367E-1,-6.529993E-1,1.2634534E0,1.7385349E0,2.8604972E0,1.7425666E0,3.5440123E-1,1.4468396E0,1E0,-6.425439E-1,3.993254E-3,1.5484947E-2,-4.7756528E-4,-1.0425865E-2,1.3893205E-2,2.518597E-2,1.3747293E-2,-7.301199E-3,-1.5994372E-3,-1.380087E-2,-1.5526613E-3,1.0535788E-2,-1.6655762E-2,-2.9381951E-2,-5.2035074E-3,-1.9803192E-2,1.667712E-2,-9.583268E-3,2.1157442E-2,3.1341936E-2,2.0518512E-2,9.536385E-3,9.4554275E-3,-7.0129796E-3,1.9458141E-2,3.23518E-2,8.025672E-3,-6.7026876E-2,3.649617E-2,4.453079E-2,3.3282083E-2,1.8603284E-2,-5.5247106E-2,-4.1295037E-2,-3.0737111E-2,-4.7293574E-2,-5.9820462E-2,-4.263039E-2,-7.696154E-2,-6.411033E-2,-1.7428994E-2,-5.137664E-3,-4.915426E-2,-1.932661E-2,-4.0045E-2,-2.477535E-2,-5.311681E-2,-3.719748E-2,-2.4495369E-2,-8.739276E-4,-3.1715777E-2,-5.977139E-2,-6.891822E-2,-4.968379E-3,-4.288145E-2,2.231137E-3,-1.2143482E-2,1.5042982E-3,1.1897413E-2,-8.8391295E-3,-1.6847795E-2,-4.252007E-2,-1.2505362E-2,6.816735E-3],"split_indices":[1,16,16,5,16,13,13,13,18,5,13,5,5,5,5,7,7,16,16,10,18,7,5,13,18,18,5,7,10,16,16,16,7,15,0,7,15,5,5,0,4,5,7,10,0,16,7,16,7,16,16,16,15,16,16,16,0,16,16,4,7,18,10,0,0,0,0,0,0,0,0,0,0,0,0,0,0,0,0,0,0,0,0,0,0,0,0,0,0,0,0,0,0,0,0,0,0,0,0,0,0,0,0,0,0,0,0,0,0,0,0,0,0,0,0,0,0,0,0,0,0,0,0,0,0,0,0],"split_type":[0,0,0,0,0,0,0,0,0,0,0,0,0,0,0,0,0,0,0,0,0,0,0,0,0,0,0,0,0,0,0,0,0,0,0,0,0,0,0,0,0,0,0,0,0,0,0,0,0,0,0,0,0,0,0,0,0,0,0,0,0,0,0,0,0,0,0,0,0,0,0,0,0,0,0,0,0,0,0,0,0,0,0,0,0,0,0,0,0,0,0,0,0,0,0,0,0,0,0,0,0,0,0,0,0,0,0,0,0,0,0,0,0,0,0,0,0,0,0,0,0,0,0,0,0,0,0],"sum_hessian":[1.232243E5,8.972673E4,3.3497574E4,5.7338184E4,3.238854E4,2.119204E4,1.2305533E4,3.9276145E4,1.806204E4,2.0593342E4,1.1795197E4,1.148619E4,9.705849E3,3.4702605E3,8.835272E3,2.5273537E4,1.4002609E4,9.741766E3,8.320272E3,1.2980159E4,7.6131826E3,4.270409E3,7.5247876E3,8.491968E3,2.9942231E3,3.9881262E3,5.7177227E3,2.7599905E3,7.102701E2,5.6159116E3,3.219361E3,1.3980824E4,1.1292713E4,7.2831763E3,6.719433E3,5.1929204E3,4.548845E3,5.8758384E3,2.4444343E3,3.4790378E3,9.501121E3,4.7149565E3,2.8982258E3,3.8212715E3,4.491377E2,6.478396E3,1.0463917E3,5.383538E3,3.108429E3,1.3004567E3,1.6937665E3,3.369893E3,6.182332E2,3.8490325E3,1.8686901E3,1.6808752E3,1.0791154E3,1.861969E2,5.240732E2,2.7373435E3,2.878568E3,2.6383816E3,5.809796E2,9.698443E3,4.2823804E3,7.212701E3,4.0800117E3,1.7693788E3,5.5137974E3,6.1663706E3,5.530626E2,2.6226921E3,2.5702283E3,2.1665598E3,2.3822852E3,3.7600437E3,2.115795E3,1.9194805E3,5.2495386E2,3.1515796E3,3.2745828E2,2.5261465E3,6.9749746E3,2.63556E3,2.0793967E3,1.8507583E3,1.0474674E3,9.2875867E2,2.892513E3,4.2502832E2,2.4109362E1,2.8452915E3,3.6331042E3,6.6079065E2,3.85601E2,2.3414663E3,3.042072E3,2.5164775E3,5.9195154E2,1.0144967E3,2.8595987E2,7.1086755E2,9.828989E2,1.3978448E3,1.9720482E3,1.7632727E2,4.4190594E2,1.00147003E3,2.8475625E3,7.045836E2,1.1641064E3,1.2432328E3,4.3764246E2,9.242817E2,1.5483366E2,1.7624834E2,9.948565E0,4.9271497E2,3.1358204E1,1.5198911E3,1.2174524E3,2.4820364E3,3.9653168E2,2.3454412E3,2.929405E2,1.4004314E2,4.409365E2],"tree_param":{"num_deleted":"0","num_feature":"29","num_nodes":"127","size_leaf_vector":"1"}},{"base_weights":[-2.2438726E-4,4.70083E-1,-3.5805953E-1,7.3093545E-1,2.917795E-1,-1.2790409E-1,-6.600973E-1,8.868617E-1,6.315371E-1,3.3581167E-1,1.7587459E-2,-2.0572571E-2,-3.7287733E-1,-4.4095656E-1,-8.404133E-1,7.825008E-1,9.460111E-1,7.0208067E-1,5.529126E-1,2.6051176E-1,4.5773405E-1,-2.141595E-1,1.6521004E-1,-1.4372261E-1,1.0180767E-1,-5.839415E-1,-1.6939124E-1,-3.6219126E-1,-7.7896017E-1,-9.9688935E-1,-6.322424E-1,8.227539E-1,7.085896E-1,9.848261E-1,8.900547E-1,7.152867E-1,4.0259492E-1,6.030694E-1,4.6394607E-1,4.136617E-1,1.9568115E-1,4.902717E-1,2.727474E-1,-5.3712463E-1,-1.16192386E-1,2.4444158E-1,-1.08117215E-1,-6.2492948E-2,-2.5268734E-1,1.9109595E-1,3.0444462E-2,-7.342389E-1,-4.533924E-1,-2.7196324E-1,-3.5031557E-2,-4.0011823E-1,-4.8333805E-2,-8.895621E-1,-4.5120904E-1,-9.218067E-1,-1.2260355E0,-9.0567833E-1,-5.5872273E-1,4.3572832E-2,3.693189E-2,3.5680033E-2,-1.3017709E-2,4.840625E-2,5.3283524E-2,4.126986E-2,4.736697E-2,3.301434E-2,3.8662843E-2,2.6313124E-2,-9.947962E-3,3.1314313E-2,2.067717E-2,2.4124503E-2,4.232446E-3,1.7175062E-2,2.455365E-2,5.876315E-3,1.4500585E-2,2.7875742E-2,1.9341866E-2,2.5158405E-2,1.1415635E-2,-2.3243254E-2,-5.7923306E-2,5.3991466E-3,-9.794492E-3,6.168758E-3,1.769205E-2,1.4411618E-3,-1.9328674E-2,-4.962443E-3,1.2470768E-2,-1.0161139E-2,-1.8375432E-2,1.2840184E-2,5.7722586E-3,-2.0996116E-3,6.7505287E-3,-4.1932676E-2,-2.8033992E-2,-2.7421165E-2,-1.5070978E-2,-1.1284608E-2,-2.795027E-2,-1.324154E-2,3.2380898E-3,-1.5083428E-2,-2.3941694E-2,1.0080884E-2,-5.841229E-3,-3.9595846E-2,-5.82772E-2,-2.6566086E-2,4.9393005E-3,-5.1435526E-2,-4.0495556E-2,-7.064448E-2,-5.8567535E-2,-4.1733887E-2,-6.1612207E-2,-2.3898594E-2,-3.8204372E-2],"categories":[],"categories_nodes":[],"categories_segments":[],"categories_sizes":[],"default_left":[0,0,0,0,0,0,0,0,0,0,0,0,0,0,0,0,0,0,0,0,0,0,0,0,0,0,0,0,0,0,0,0,0,0,0,0,0,0,0,0,0,0,0,0,0,0,0,0,0,0,0,0,0,0,0,0,0,0,0,0,0,0,0,0,0,0,0,0,0,0,0,0,0,0,0,0,0,0,0,0,0,0,0,0,0,0,0,0,0,0,0,0,0,0,0,0,0,0,0,0,0,0,0,0,0,0,0,0,0,0,0,0,0,0,0,0,0,0,0,0,0,0,0,0,0,0,0],"id":7,"left_children":[1,3,5,7,9,11,13,15,17,19,21,23,25,27,29,31,33,35,37,39,41,43,45,47,49,51,53,55,57,59,61,63,65,67,69,71,73,75,77,79,81,83,85,87,89,91,93,95,97,99,101,103,105,107,109,111,113,115,117,119,121,123,125,-1,-1,-1,-1,-1,-1,-1,-1,-1,-1,-1,-1,-1,-1,-1,-1,-1,-1,-1,-1,-1,-1,-1,-1,-1,-1,-1,-1,-1,-1,-1,-1,-1,-1,-1,-1,-1,-1,-1,-1,-1,-1,-1,-1,-1,-1,-1,-1,-1,-1,-1,-1,-1,-1,-1,-1,-1,-1,-1,-1,-1,-1,-1,-1],"loss_changes":[2.0712941E4,2.4732744E3,4.858795E3,3.34083E2,3.8139258E2,1.0430422E3,1.1940557E3,5.1131348E1,7.2765625E1,2.497732E2,1.496116E2,4.1575467E2,5.1895825E2,3.630381E2,5.3949414E2,8.478149E0,1.076123E1,2.7192383E1,2.757434E1,1.6701233E2,6.2410156E1,5.3781082E1,5.7878685E1,1.2168567E2,8.815848E1,1.1605798E2,8.481087E1,1.3174988E2,9.306055E1,1.6170508E2,1.4259009E2,7.4084473E0,5.4347534E0,3.227295E0,7.385376E0,2.0702637E1,2.2105213E1,1.729065E1,1.581839E1,2.7010864E1,8.715039E1,6.1237305E1,1.582222E1,1.7231491E1,2.3371704E1,2.7390633E1,2.2930153E1,9.035037E1,3.327597E1,3.0521667E1,5.8262962E1,4.9470215E1,4.5719055E1,4.622763E1,6.1145905E1,7.639014E1,2.047416E1,5.0998413E1,2.880516E1,8.448828E1,2.2181396E1,3.3907104E1,9.270825E1,0E0,0E0,0E0,0E0,0E0,0E0,0E0,0E0,0E0,0E0,0E0,0E0,0E0,0E0,0E0,0E0,0E0,0E0,0E0,0E0,0E0,0E0,0E0,0E0,0E0,0E0,0E0,0E0,0E0,0E0,0E0,0E0,0E0,0E0,0E0,0E0,0E0,0E0,0E0,0E0,0E0,0E0,0E0,0E0,0E0,0E0,0E0,0E0,0E0,0E0,0E0,0E0,0E0,0E0,0E0,0E0,0E0,0E0,0E0,0E0,0E0,0E0,0E0,0E0],"parents":[2147483647,0,0,1,1,2,2,3,3,4,4,5,5,6,6,7,7,8,8,9,9,10,10,11,11,12,12,13,13,14,14,15,15,16,16,17,17,18,18,19,19,20,20,21,21,22,22,23,23,24,24,25,25,26,26,27,27,28,28,29,29,30,30,31,31,32,32,33,33,34,34,35,35,36,36,37,37,38,38,39,39,40,40,41,41,42,42,43,43,44,44,45,45,46,46,47,47,48,48,49,49,50,50,51,51,52,52,53,53,54,54,55,55,56,56,57,57,58,58,59,59,60,60,61,61,62,62],"right_children":[2,4,6,8,10,12,14,16,18,20,22,24,26,28,30,32,34,36,38,40,42,44,46,48,50,52,54,56,58,60,62,64,66,68,70,72,74,76,78,80,82,84,86,88,90,92,94,96,98,100,102,104,106,108,110,112,114,116,118,120,122,124,126,-1,-1,-1,-1,-1,-1,-1,-1,-1,-1,-1,-1,-1,-1,-1,-1,-1,-1,-1,-1,-1,-1,-1,-1,-1,-1,-1,-1,-1,-1,-1,-1,-1,-1,-1,-1,-1,-1,-1,-1,-1,-1,-1,-1,-1,-1,-1,-1,-1,-1,-1,-1,-1,-1,-1,-1,-1,-1,-1,-1,-1,-1,-1,-1],"split_conditions":[-1.4265028E-1,-8.931693E-1,7.7465075E-1,-1.2642592E0,6E1,6E1,6E1,7.843402E-1,-1.1079011E0,1.6890937E-1,3.0522704E-1,-3.3208808E-1,1.6890937E-1,1.7127995E0,1.6890937E-1,4.0608874E-1,-1.414363E0,6E1,1E0,-5.9504646E-1,1E0,-3.3208808E-1,1E0,2.4720266E-1,1.4921823E-1,-1.7388614E-1,1.4552265E-1,1.1709043E0,1.6890937E-1,2.2339933E0,-4.681408E-1,1E0,1E0,3.1799061E0,1.6890937E-1,6.246358E-1,1E0,6E1,6E1,-1.418174E-2,-1.7388614E-1,-3.9282328E-1,-8.6462533E-1,1.292335E0,-5.491814E-1,6.6990685E-1,4.0608874E-1,1.7006598E-1,5.6617326E-1,4.3027572E-2,6.6990685E-1,-3.3208808E-1,-3.3208808E-1,1E0,-2.4599442E-1,-3.2003358E-1,-5.0156415E-1,2.5029292E0,1.3007449E0,-3.6607355E-1,-7.171758E-1,1E0,1.9129379E0,4.3572832E-2,3.693189E-2,3.5680033E-2,-1.3017709E-2,4.840625E-2,5.3283524E-2,4.126986E-2,4.736697E-2,3.301434E-2,3.8662843E-2,2.6313124E-2,-9.947962E-3,3.1314313E-2,2.067717E-2,2.4124503E-2,4.232446E-3,1.7175062E-2,2.455365E-2,5.876315E-3,1.4500585E-2,2.7875742E-2,1.9341866E-2,2.5158405E-2,1.1415635E-2,-2.3243254E-2,-5.7923306E-2,5.3991466E-3,-9.794492E-3,6.168758E-3,1.769205E-2,1.4411618E-3,-1.9328674E-2,-4.962443E-3,1.2470768E-2,-1.0161139E-2,-1.8375432E-2,1.2840184E-2,5.7722586E-3,-2.0996116E-3,6.7505287E-3,-4.1932676E-2,-2.8033992E-2,-2.7421165E-2,-1.5070978E-2,-1.1284608E-2,-2.795027E-2,-1.324154E-2,3.2380898E-3,-1.5083428E-2,-2.3941694E-2,1.0080884E-2,-5.841229E-3,-3.9595846E-2,-5.82772E-2,-2.6566086E-2,4.9393005E-3,-5.1435526E-2,-4.0495556E-2,-7.064448E-2,-5.8567535E-2,-4.1733887E-2,-6.1612207E-2,-2.3898594E-2,-3.8204372E-2],"split_indices":[2,2,2,2,1,1,1,16,2,13,16,13,13,2,13,8,2,1,18,2,18,13,18,2,2,16,16,13,13,2,4,18,28,16,13,16,18,1,1,16,16,2,8,15,2,13,8,2,2,8,13,13,13,18,4,8,8,2,4,4,10,18,2,0,0,0,0,0,0,0,0,0,0,0,0,0,0,0,0,0,0,0,0,0,0,0,0,0,0,0,0,0,0,0,0,0,0,0,0,0,0,0,0,0,0,0,0,0,0,0,0,0,0,0,0,0,0,0,0,0,0,0,0,0,0,0,0],"split_type":[0,0,0,0,0,0,0,0,0,0,0,0,0,0,0,0,0,0,0,0,0,0,0,0,0,0,0,0,0,0,0,0,0,0,0,0,0,0,0,0,0,0,0,0,0,0,0,0,0,0,0,0,0,0,0,0,0,0,0,0,0,0,0,0,0,0,0,0,0,0,0,0,0,0,0,0,0,0,0,0,0,0,0,0,0,0,0,0,0,0,0,0,0,0,0,0,0,0,0,0,0,0,0,0,0,0,0,0,0,0,0,0,0,0,0,0,0,0,0,0,0,0,0,0,0,0,0],"sum_hessian":[1.2307502E5,5.31798E4,6.989522E4,2.1590488E4,3.1589314E4,3.9668727E4,3.0226492E4,8.402139E3,1.3188351E4,2.7218156E4,4.371157E3,2.758419E4,1.2084535E4,1.3645884E4,1.658061E4,3.0445981E3,5.35754E3,6.9472227E3,6.241128E3,1.6828143E4,1.0390014E4,1.7007559E3,2.6704014E3,1.3748767E4,1.3835424E4,5.930895E3,6.15364E3,1.1068623E4,2.577261E3,9.46343E3,7.1171797E3,1.9645459E3,1.0800524E3,3.1534805E3,2.2040596E3,6.652488E3,2.9473465E2,3.9873762E3,2.2537517E3,5.003336E3,1.1824807E4,8.834455E3,1.555559E3,3.9478793E2,1.3059679E3,2.0703562E3,6.0004504E2,7.87774E3,5.8710264E3,6.145106E3,7.690318E3,2.7547766E3,3.1761182E3,3.489038E3,2.6646023E3,9.875034E3,1.1935884E3,1.9257043E3,6.5155664E2,7.1316704E3,2.331759E3,1.5057269E3,5.6114526E3,1.2382478E3,7.2629816E2,1.0747576E3,5.2947316E0,2.624316E3,5.2916455E2,1.0426371E3,1.1614225E3,3.420057E3,3.2324312E3,2.445792E2,5.015545E1,3.5501768E3,4.3719934E2,2.1484414E3,1.0531018E2,2.6274377E3,2.3758982E3,6.4680977E3,5.3567095E3,5.351215E3,3.48324E3,2.4981158E2,1.3057474E3,3.5522485E2,3.9563087E1,3.4242633E2,9.6354156E2,9.8378375E2,1.0865725E3,4.0283405E2,1.97211E2,7.047885E3,8.2985535E2,4.1052646E3,1.7657617E3,3.2873923E3,2.8577139E3,4.543483E3,3.146835E3,1.7176138E3,1.037163E3,1.9525503E3,1.2235679E3,3.0062227E3,4.8281534E2,8.06282E2,1.8583203E3,4.3896846E3,5.4853496E3,2.5629974E2,9.3728864E2,1.4252916E3,5.0041272E2,5.687466E2,8.281009E1,3.6429988E3,3.4886719E3,5.2229047E2,1.8094685E3,1.2397428E3,2.6598413E2,4.0301113E3,1.5813413E3],"tree_param":{"num_deleted":"0","num_feature":"29","num_nodes":"127","size_leaf_vector":"1"}},{"base_weights":[3.0218858E-5,-1.2102102E-1,3.5248303E-1,-2.1871352E-1,3.6452595E-2,2.7312145E-1,5.890458E-1,-3.035455E-1,-8.288622E-2,1.099651E-1,-1.056599E-1,1.3687187E-1,3.5068125E-1,4.054557E-1,6.781882E-1,-2.2598237E-1,-4.730561E-1,-1.338445E-1,8.671948E-2,2.4670775E-1,2.5994489E-2,-1.6730474E-1,9.778724E-2,-1.5361929E-1,1.7958304E-1,2.4957207E-1,4.6634635E-1,1.4329319E-1,4.9548712E-1,7.037169E-1,3.9377567E-1,-1.3542977E-2,-3.439291E-1,-3.57949E-1,-5.8350253E-1,-7.318766E-2,-2.702754E-1,4.1305214E-2,2.757615E-1,3.4795654E-1,1.6454208E-1,-7.6596476E-2,1.1920705E-1,-3.4172952E-2,-2.5970072E-1,-1.699615E-1,1.6200261E-1,-6.564945E-2,-4.2312565E-1,2.5751814E-1,5.192406E-2,2.853965E-1,-2.2037255E-2,4.1786367E-1,6.2563676E-1,2.9360226E-1,-2.6613042E-1,5.1272994E-1,-2.810841E-1,7.4965286E-1,5.481313E-1,1.860699E-1,5.204331E-1,3.924624E-3,-6.212494E-3,-1.1283245E-2,-2.2138264E-2,-2.0076348E-2,-7.133819E-3,-3.171243E-2,-1.7284565E-2,6.5592187E-3,-9.944552E-3,-2.7415618E-2,-1.172438E-2,5.139032E-3,-2.2906426E-3,2.6018197E-2,1.1328115E-2,1.2540178E-2,2.2741415E-2,1.9205821E-3,1.2658225E-2,4.1622887E-3,-8.585147E-3,1.452398E-3,1.22697465E-2,-4.204229E-3,9.86424E-3,-1.8479701E-2,-5.236834E-3,-1.5444348E-2,7.0601697E-3,2.1562234E-3,1.3570035E-2,9.710577E-3,-1.2612558E-2,-1.4315203E-2,-3.9641075E-2,2.0109944E-2,5.201375E-4,2.6966183E-4,1.102824E-2,1.7109986E-2,6.076638E-3,-4.165124E-3,6.1188177E-3,2.1445796E-2,-1.1716834E-2,3.237231E-2,2.1757286E-2,-4.2374473E-2,1.629356E-2,2.1401841E-2,-2.2738323E-2,2.2076478E-2,3.6255926E-2,-1.2437188E-3,-5.6238383E-2,4.103243E-2,3.222507E-2,1.5331295E-2,3.1687167E-2,-2.3130465E-2,1.2010519E-2,2.7870892E-2,-5.0302474E-3],"categories":[],"categories_nodes":[],"categories_segments":[],"categories_sizes":[],"default_left":[0,0,0,0,0,0,0,0,0,0,0,0,0,0,0,0,0,0,0,0,0,0,0,0,0,0,0,0,0,0,0,0,0,0,0,0,0,0,0,0,0,0,0,0,0,0,0,0,0,0,0,0,0,0,0,0,0,0,0,0,0,0,0,0,0,0,0,0,0,0,0,0,0,0,0,0,0,0,0,0,0,0,0,0,0,0,0,0,0,0,0,0,0,0,0,0,0,0,0,0,0,0,0,0,0,0,0,0,0,0,0,0,0,0,0,0,0,0,0,0,0,0,0,0,0,0,0],"id":8,"left_children":[1,3,5,7,9,11,13,15,17,19,21,23,25,27,29,31,33,35,37,39,41,43,45,47,49,51,53,55,57,59,61,63,65,67,69,71,73,75,77,79,81,83,85,87,89,91,93,95,97,99,101,103,105,107,109,111,113,115,117,119,121,123,125,-1,-1,-1,-1,-1,-1,-1,-1,-1,-1,-1,-1,-1,-1,-1,-1,-1,-1,-1,-1,-1,-1,-1,-1,-1,-1,-1,-1,-1,-1,-1,-1,-1,-1,-1,-1,-1,-1,-1,-1,-1,-1,-1,-1,-1,-1,-1,-1,-1,-1,-1,-1,-1,-1,-1,-1,-1,-1,-1,-1,-1,-1,-1,-1],"loss_changes":[5.2437954E3,1.4074219E3,5.897385E2,6.5053174E2,3.659392E2,2.4860327E2,1.2888672E2,4.568247E2,1.8762282E2,2.650726E2,1.4978836E2,1.05949646E2,1.7523193E2,6.0873077E1,3.828589E1,5.9747766E2,1.384812E2,1.3811795E2,4.3049892E1,7.3009094E1,1.367937E2,1.1273416E2,4.7785694E1,2.5929682E1,7.40406E1,7.787152E1,5.373889E1,4.0784424E1,2.587497E1,3.4412598E1,1.1471397E1,8.675609E1,1.791195E2,5.0079773E1,6.694739E1,2.969142E2,5.0986237E1,2.1670216E1,1.1571892E1,4.0728577E1,5.4206192E1,1.0353992E2,8.526203E1,4.3409065E1,9.209671E1,2.3292156E1,2.9130905E1,4.0131992E1,1.3392139E1,1.652268E2,2.2149258E1,6.5765625E1,8.268707E0,3.876361E1,6.4884033E0,1.8109291E1,2.3522652E1,2.8112701E1,9.134178E0,2.7533691E1,2.2846283E1,6.0157375E0,6.317505E0,0E0,0E0,0E0,0E0,0E0,0E0,0E0,0E0,0E0,0E0,0E0,0E0,0E0,0E0,0E0,0E0,0E0,0E0,0E0,0E0,0E0,0E0,0E0,0E0,0E0,0E0,0E0,0E0,0E0,0E0,0E0,0E0,0E0,0E0,0E0,0E0,0E0,0E0,0E0,0E0,0E0,0E0,0E0,0E0,0E0,0E0,0E0,0E0,0E0,0E0,0E0,0E0,0E0,0E0,0E0,0E0,0E0,0E0,0E0,0E0,0E0,0E0,0E0,0E0],"parents":[2147483647,0,0,1,1,2,2,3,3,4,4,5,5,6,6,7,7,8,8,9,9,10,10,11,11,12,12,13,13,14,14,15,15,16,16,17,17,18,18,19,19,20,20,21,21,22,22,23,23,24,24,25,25,26,26,27,27,28,28,29,29,30,30,31,31,32,32,33,33,34,34,35,35,36,36,37,37,38,38,39,39,40,40,41,41,42,42,43,43,44,44,45,45,46,46,47,47,48,48,49,49,50,50,51,51,52,52,53,53,54,54,55,55,56,56,57,57,58,58,59,59,60,60,61,61,62,62],"right_children":[2,4,6,8,10,12,14,16,18,20,22,24,26,28,30,32,34,36,38,40,42,44,46,48,50,52,54,56,58,60,62,64,66,68,70,72,74,76,78,80,82,84,86,88,90,92,94,96,98,100,102,104,106,108,110,112,114,116,118,120,122,124,126,-1,-1,-1,-1,-1,-1,-1,-1,-1,-1,-1,-1,-1,-1,-1,-1,-1,-1,-1,-1,-1,-1,-1,-1,-1,-1,-1,-1,-1,-1,-1,-1,-1,-1,-1,-1,-1,-1,-1,-1,-1,-1,-1,-1,-1,-1,-1,-1,-1,-1,-1,-1,-1,-1,-1,-1,-1,-1,-1,-1,-1,-1,-1,-1],"split_conditions":[4.6493143E-1,1.6890937E-1,1.7425666E0,-3.335905E-1,1E0,-3.3208808E-1,-3.3208808E-1,1E0,1E0,1E0,8.587336E-1,-9.4397634E-1,1.4186117E-1,-1.0098193E0,1E0,1E0,-1.38503E-1,1E0,2.3432212E-1,-1.38503E-1,-4.932949E-1,-1.38503E-1,-8.1270367E-1,1E0,1E0,1E0,1E0,1E0,1E0,1E0,-1.9796276E-1,-1.38503E-1,-3.2003358E-1,1E0,4.5046455E-1,1E0,-8.7202585E-1,1E0,-6.8309474E-1,-1.7394695E-1,-4.932949E-1,-3.2003358E-1,3.5440123E-1,1E0,-3.335905E-1,1.6719017E0,1.1709043E0,1E0,-2.0997068E-1,1E0,2.1030629E-1,1E0,-2.2197859E-1,1E0,1.2285763E0,-1.7616922E0,-1.0837117E0,2.7007928E0,1E0,1E0,-8.03576E-1,-1.0865483E0,1E0,3.924624E-3,-6.212494E-3,-1.1283245E-2,-2.2138264E-2,-2.0076348E-2,-7.133819E-3,-3.171243E-2,-1.7284565E-2,6.5592187E-3,-9.944552E-3,-2.7415618E-2,-1.172438E-2,5.139032E-3,-2.2906426E-3,2.6018197E-2,1.1328115E-2,1.2540178E-2,2.2741415E-2,1.9205821E-3,1.2658225E-2,4.1622887E-3,-8.585147E-3,1.452398E-3,1.22697465E-2,-4.204229E-3,9.86424E-3,-1.8479701E-2,-5.236834E-3,-1.5444348E-2,7.0601697E-3,2.1562234E-3,1.3570035E-2,9.710577E-3,-1.2612558E-2,-1.4315203E-2,-3.9641075E-2,2.0109944E-2,5.201375E-4,2.6966183E-4,1.102824E-2,1.7109986E-2,6.076638E-3,-4.165124E-3,6.1188177E-3,2.1445796E-2,-1.1716834E-2,3.237231E-2,2.1757286E-2,-4.2374473E-2,1.629356E-2,2.1401841E-2,-2.2738323E-2,2.2076478E-2,3.6255926E-2,-1.2437188E-3,-5.6238383E-2,4.103243E-2,3.222507E-2,1.5331295E-2,3.1687167E-2,-2.3130465E-2,1.2010519E-2,2.7870892E-2,-5.0302474E-3],"split_indices":[16,13,16,16,20,13,13,20,21,19,4,10,4,10,18,19,8,20,4,8,16,8,16,20,19,18,21,20,28,20,4,8,8,21,4,19,10,19,8,4,16,8,4,21,16,13,13,19,4,20,4,20,4,27,11,12,3,16,17,19,10,4,24,0,0,0,0,0,0,0,0,0,0,0,0,0,0,0,0,0,0,0,0,0,0,0,0,0,0,0,0,0,0,0,0,0,0,0,0,0,0,0,0,0,0,0,0,0,0,0,0,0,0,0,0,0,0,0,0,0,0,0,0,0,0,0,0],"split_type":[0,0,0,0,0,0,0,0,0,0,0,0,0,0,0,0,0,0,0,0,0,0,0,0,0,0,0,0,0,0,0,0,0,0,0,0,0,0,0,0,0,0,0,0,0,0,0,0,0,0,0,0,0,0,0,0,0,0,0,0,0,0,0,0,0,0,0,0,0,0,0,0,0,0,0,0,0,0,0,0,0,0,0,0,0,0,0,0,0,0,0,0,0,0,0,0,0,0,0,0,0,0,0,0,0,0,0,0,0,0,0,0,0,0,0,0,0,0,0,0,0,0,0,0,0,0,0],"sum_hessian":[1.22904695E5,9.148462E4,3.1420078E4,5.645872E4,3.50259E4,2.352883E4,7.8912476E3,3.4752527E4,2.1706191E4,2.3084752E4,1.1941145E4,8.536135E3,1.4992695E4,2.5810618E3,5.3101855E3,2.3844367E4,1.0908159E4,1.6691438E4,5.0147554E3,8.781883E3,1.4302869E4,9.164472E3,2.7766733E3,1.0938619E3,7.442273E3,8.001397E3,6.9912983E3,6.6045984E2,1.920602E3,4.8714536E3,4.3873184E2,8.512758E3,1.5331609E4,5.3434565E3,5.5647026E3,1.1555449E4,5.1359873E3,4.044378E3,9.703775E2,3.9326423E3,4.84924E3,6.8089873E3,7.4938823E3,3.7551333E3,5.409338E3,5.368031E2,2.2398704E3,8.2561554E2,2.682464E2,4.620479E3,2.8217942E3,7.068971E3,9.3242554E2,5.362696E3,1.6286025E3,4.833087E2,1.7715114E2,1.879216E3,4.138601E1,3.758078E3,1.113376E3,1.6712778E2,2.7160406E2,4.6485264E3,3.864231E3,6.9812954E3,8.350314E3,4.443156E3,9.0030054E2,4.5847124E3,9.799903E2,4.400672E3,7.154778E3,5.840623E2,4.551925E3,2.3710508E3,1.673327E3,1.6089304E2,8.094845E2,2.06174E3,1.8709022E3,2.0017356E3,2.847505E3,2.5400815E3,4.268906E3,4.371646E3,3.122236E3,3.0895405E3,6.6559283E2,3.1641118E3,2.245226E3,3.7111783E2,1.6568527E2,1.0740936E3,1.1657766E3,3.450538E2,4.8056174E2,1.970822E2,7.1164185E1,2.913853E3,1.7066259E3,2.2123904E3,6.094038E2,5.2484956E3,1.8204756E3,6.5498254E2,2.77443E2,5.27367E3,8.9025826E1,1.4591453E3,1.6945724E2,1.2596828E1,4.7071185E2,3.7582203E1,1.3956894E2,1.4097089E3,4.695071E2,3.2535206E1,8.850804E0,2.239332E3,1.5187458E3,2.9258807E2,8.2078784E2,1.2293207E1,1.5483456E2,2.56435E2,1.5169047E1],"tree_param":{"num_deleted":"0","num_feature":"29","num_nodes":"127","size_leaf_vector":"1"}},{"base_weights":[2.6635404E-3,4.5426914E-1,-3.3042246E-1,7.065083E-1,2.8681383E-1,-1.1705676E-1,-6.061589E-1,8.602254E-1,6.102466E-1,3.3023292E-1,1.7810185E-2,-1.6137261E-2,-3.457374E-1,-3.9823818E-1,-7.7497405E-1,7.682658E-1,9.272971E-1,6.819891E-1,5.338565E-1,4.602207E-1,2.7056676E-1,1.1071242E-1,-2.5943887E-1,-9.248292E-2,1.401307E-1,-5.3522074E-1,-1.5852495E-1,-3.39131E-1,-7.499932E-1,-8.759964E-1,-5.0791615E-1,8.1064814E-1,6.5786964E-1,9.652779E-1,8.6984766E-1,7.4449724E-1,6.104828E-1,5.944103E-1,4.1910264E-1,3.8422018E-1,5.2383506E-1,3.5351443E-1,1.6901633E-1,-6.115297E-2,2.1391557E-1,-4.1832307E-1,-9.882076E-2,1.7273536E-1,-1.2317299E-1,2.929734E-1,5.5378113E-2,-4.5602673E-1,-8.2495993E-1,-4.404645E-2,-3.136862E-1,-9.56149E-2,-4.083556E-1,-3.756064E-2,-8.332734E-1,-7.5649464E-1,-1.0334008E0,-2.4281424E-1,-5.82386E-1,1.5288891E-2,4.0802274E-2,3.3870798E-2,1.8308653E-2,4.8462603E-2,1.084461E-2,4.5260504E-2,4.016981E-2,3.780792E-2,2.4974426E-2,2.7087687E-2,3.4310143E-2,3.0925333E-2,1.42195765E-2,2.1918489E-2,-6.9251764E-3,2.4656689E-2,1.4739274E-2,2.9064743E-2,2.1689637E-2,2.1753497E-2,1.3723426E-2,1.3566658E-2,2.6235573E-3,9.140524E-3,-7.128913E-3,1.5957374E-2,2.8855817E-3,-3.582975E-3,-2.620216E-2,-3.1057184E-3,-5.32888E-2,1.4242278E-2,3.7087114E-3,-2.3935945E-3,-1.12837255E-2,2.4390541E-2,1.1912077E-2,4.763789E-3,-7.611008E-3,-3.0290201E-2,-1.758446E-2,-5.039499E-2,-3.2137122E-2,-5.2184365E-3,6.3168514E-3,-2.3041463E-2,-7.3045804E-3,9.921423E-3,-7.587305E-3,-1.6300092E-2,-2.974975E-2,2.059086E-3,-4.063311E-2,-4.5179527E-2,-2.0881029E-2,-3.418417E-2,-4.971835E-2,-6.076588E-2,-4.6769302E-2,-3.856726E-3,-1.7115535E-2,-4.153745E-2,-2.5539657E-2],"categories":[],"categories_nodes":[],"categories_segments":[],"categories_sizes":[],"default_left":[0,0,0,0,0,0,0,0,0,0,0,0,0,0,0,0,0,0,0,0,0,0,0,0,0,0,0,0,0,0,0,0,0,0,0,0,0,0,0,0,0,0,0,0,0,0,0,0,0,0,0,0,0,0,0,0,0,0,0,0,0,0,0,0,0,0,0,0,0,0,0,0,0,0,0,0,0,0,0,0,0,0,0,0,0,0,0,0,0,0,0,0,0,0,0,0,0,0,0,0,0,0,0,0,0,0,0,0,0,0,0,0,0,0,0,0,0,0,0,0,0,0,0,0,0,0,0],"id":9,"left_children":[1,3,5,7,9,11,13,15,17,19,21,23,25,27,29,31,33,35,37,39,41,43,45,47,49,51,53,55,57,59,61,63,65,67,69,71,73,75,77,79,81,83,85,87,89,91,93,95,97,99,101,103,105,107,109,111,113,115,117,119,121,123,125,-1,-1,-1,-1,-1,-1,-1,-1,-1,-1,-1,-1,-1,-1,-1,-1,-1,-1,-1,-1,-1,-1,-1,-1,-1,-1,-1,-1,-1,-1,-1,-1,-1,-1,-1,-1,-1,-1,-1,-1,-1,-1,-1,-1,-1,-1,-1,-1,-1,-1,-1,-1,-1,-1,-1,-1,-1,-1,-1,-1,-1,-1,-1,-1],"loss_changes":[1.8487494E4,2.2033877E3,4.1613477E3,3.0747266E2,3.6623022E2,9.2030676E2,1.0827529E3,4.870996E1,6.980078E1,2.09271E2,1.1229827E2,3.3011145E2,4.3304944E2,2.8726294E2,4.589668E2,1.5305908E1,9.2595215E0,2.9039795E1,4.2869385E1,4.0857056E1,1.5583093E2,5.793343E1,2.7884514E1,1.5132149E2,1.1762384E2,1.3885303E2,1.0910628E2,1.9957104E2,1.17955444E2,2.3158984E2,9.217261E1,6.404419E0,5.136627E0,8.049805E0,3.6253662E0,9.668457E0,1.5674683E1,3.0149414E1,2.3124237E1,3.758252E1,2.3651733E1,6.554321E1,9.9226074E1,2.4379572E1,3.3523193E1,2.0112373E1,1.9294891E1,2.1285923E1,1.2858633E2,3.44263E1,4.8412487E1,7.4291016E1,4.272931E1,3.635821E1,6.4247345E1,4.3311623E1,1.4151917E2,1.2800191E1,5.1660034E1,1.2100928E2,9.3875E1,1.6906292E1,6.44729E1,0E0,0E0,0E0,0E0,0E0,0E0,0E0,0E0,0E0,0E0,0E0,0E0,0E0,0E0,0E0,0E0,0E0,0E0,0E0,0E0,0E0,0E0,0E0,0E0,0E0,0E0,0E0,0E0,0E0,0E0,0E0,0E0,0E0,0E0,0E0,0E0,0E0,0E0,0E0,0E0,0E0,0E0,0E0,0E0,0E0,0E0,0E0,0E0,0E0,0E0,0E0,0E0,0E0,0E0,0E0,0E0,0E0,0E0,0E0,0E0,0E0,0E0,0E0,0E0],"parents":[2147483647,0,0,1,1,2,2,3,3,4,4,5,5,6,6,7,7,8,8,9,9,10,10,11,11,12,12,13,13,14,14,15,15,16,16,17,17,18,18,19,19,20,20,21,21,22,22,23,23,24,24,25,25,26,26,27,27,28,28,29,29,30,30,31,31,32,32,33,33,34,34,35,35,36,36,37,37,38,38,39,39,40,40,41,41,42,42,43,43,44,44,45,45,46,46,47,47,48,48,49,49,50,50,51,51,52,52,53,53,54,54,55,55,56,56,57,57,58,58,59,59,60,60,61,61,62,62],"right_children":[2,4,6,8,10,12,14,16,18,20,22,24,26,28,30,32,34,36,38,40,42,44,46,48,50,52,54,56,58,60,62,64,66,68,70,72,74,76,78,80,82,84,86,88,90,92,94,96,98,100,102,104,106,108,110,112,114,116,118,120,122,124,126,-1,-1,-1,-1,-1,-1,-1,-1,-1,-1,-1,-1,-1,-1,-1,-1,-1,-1,-1,-1,-1,-1,-1,-1,-1,-1,-1,-1,-1,-1,-1,-1,-1,-1,-1,-1,-1,-1,-1,-1,-1,-1,-1,-1,-1,-1,-1,-1,-1,-1,-1,-1,-1,-1,-1,-1,-1,-1,-1,-1,-1,-1,-1,-1],"split_conditions":[-1.4265028E-1,-8.931693E-1,7.7465075E-1,-1.2642592E0,6E1,6E1,6E1,9.440446E-1,-2.2291099E-1,-5.9504646E-1,1E0,1.6890937E-1,1.6890937E-1,1.9129379E0,6.6990685E-1,2.1124735E-1,-1.414363E0,-1.1079011E0,1E0,-1.7388614E-1,1E0,3.0522704E-1,4.6493143E-1,-1.2221562E0,-3.267822E-1,9.5468515E-1,2.1124735E-1,-1.0396088E0,-1.31343E0,5.1119006E-1,-5.660361E-1,-1.5335466E0,2.3007882E0,1E0,7.0062005E-3,6E1,1.6890937E-1,6E1,6E1,-4.0964577E-1,1E0,-7.7024445E-2,-4.5512956E-2,-7.7611274E-1,1.3538635E-1,-5.491814E-1,2.885161E0,-9.803211E-2,2.4720266E-1,-9.768581E-1,1E0,-3.335905E-1,-1.418174E-2,1.6719017E0,1.4552265E-1,-1.4389313E0,8.1346697E-1,2.9261386E0,6.6990685E-1,2.2339933E0,-6.529993E-1,-5.0156415E-1,-8.1270367E-1,1.5288891E-2,4.0802274E-2,3.3870798E-2,1.8308653E-2,4.8462603E-2,1.084461E-2,4.5260504E-2,4.016981E-2,3.780792E-2,2.4974426E-2,2.7087687E-2,3.4310143E-2,3.0925333E-2,1.42195765E-2,2.1918489E-2,-6.9251764E-3,2.4656689E-2,1.4739274E-2,2.9064743E-2,2.1689637E-2,2.1753497E-2,1.3723426E-2,1.3566658E-2,2.6235573E-3,9.140524E-3,-7.128913E-3,1.5957374E-2,2.8855817E-3,-3.582975E-3,-2.620216E-2,-3.1057184E-3,-5.32888E-2,1.4242278E-2,3.7087114E-3,-2.3935945E-3,-1.12837255E-2,2.4390541E-2,1.1912077E-2,4.763789E-3,-7.611008E-3,-3.0290201E-2,-1.758446E-2,-5.039499E-2,-3.2137122E-2,-5.2184365E-3,6.3168514E-3,-2.3041463E-2,-7.3045804E-3,9.921423E-3,-7.587305E-3,-1.6300092E-2,-2.974975E-2,2.059086E-3,-4.063311E-2,-4.5179527E-2,-2.0881029E-2,-3.418417E-2,-4.971835E-2,-6.076588E-2,-4.6769302E-2,-3.856726E-3,-1.7115535E-2,-4.153745E-2,-2.5539657E-2],"split_indices":[2,2,2,2,1,1,1,16,5,2,18,13,13,2,13,5,2,2,18,16,18,16,16,0,5,5,5,0,0,5,5,15,14,27,5,1,13,1,1,5,18,5,5,5,5,2,0,5,2,0,18,16,16,13,16,0,5,2,13,2,16,8,16,0,0,0,0,0,0,0,0,0,0,0,0,0,0,0,0,0,0,0,0,0,0,0,0,0,0,0,0,0,0,0,0,0,0,0,0,0,0,0,0,0,0,0,0,0,0,0,0,0,0,0,0,0,0,0,0,0,0,0,0,0,0,0,0],"split_type":[0,0,0,0,0,0,0,0,0,0,0,0,0,0,0,0,0,0,0,0,0,0,0,0,0,0,0,0,0,0,0,0,0,0,0,0,0,0,0,0,0,0,0,0,0,0,0,0,0,0,0,0,0,0,0,0,0,0,0,0,0,0,0,0,0,0,0,0,0,0,0,0,0,0,0,0,0,0,0,0,0,0,0,0,0,0,0,0,0,0,0,0,0,0,0,0,0,0,0,0,0,0,0,0,0,0,0,0,0,0,0,0,0,0,0,0,0,0,0,0,0,0,0,0,0,0,0],"sum_hessian":[1.2290096E5,5.2168863E4,7.073209E4,2.081375E4,3.1355113E4,3.987676E4,3.0855336E4,8.0118887E3,1.280186E4,2.6997324E4,4.357788E3,2.766773E4,1.2209029E4,1.3827761E4,1.7027574E4,3.3842803E3,4.6276084E3,6.597669E3,6.204192E3,8.491394E3,1.850593E4,3.264501E3,1.0932874E3,1.8587234E4,9.080497E3,6.0667896E3,6.1422397E3,1.1840163E4,1.9875983E3,1.2352574E4,4.6749995E3,2.4408625E3,9.4341785E2,2.7763293E3,1.8512793E3,3.5153047E3,3.082364E3,4.0584382E3,2.1457537E3,3.8722405E3,4.619153E3,1.0184567E4,8.321363E3,1.2249633E3,2.0395377E3,5.488037E2,5.444837E2,1.9272913E3,1.6659943E4,3.2382266E3,5.8422705E3,4.766533E3,1.3002563E3,3.5352236E3,2.6070159E3,2.6213262E3,9.218837E3,2.0817625E2,1.779422E3,7.02499E3,5.3275845E3,1.0261863E3,3.6488135E3,2.6427872E1,2.4144346E3,8.829311E2,6.0486786E1,2.7613706E3,1.4958747E1,1.200047E3,6.5123224E2,3.3536052E3,1.6169951E2,1.6200453E3,1.4623187E3,3.7648208E3,2.9361737E2,2.074294E3,7.1459724E1,1.7439473E3,2.1282932E3,2.8164211E3,1.8027318E3,5.0104937E3,5.1740737E3,4.4304624E3,3.890901E3,3.0622324E2,9.1874E2,1.2179696E3,8.215682E2,1.2864514E2,4.2015854E2,5.255959E2,1.88878E1,9.007858E2,1.0265054E3,9.605144E3,7.054799E3,7.084248E2,2.5298018E3,4.900919E3,9.413514E2,1.9551272E3,2.811406E3,6.465812E2,6.536752E2,2.6111602E3,9.240634E2,1.3872777E3,1.2197383E3,4.1977887E2,2.201547E3,6.3983433E3,2.8204934E3,1.8983757E2,1.833868E1,1.5209454E3,2.5847656E2,5.3815913E3,1.6433989E3,1.8613997E3,3.4661846E3,3.857003E2,6.4048596E2,8.140805E2,2.834733E3],"tree_param":{"num_deleted":"0","num_feature":"29","num_nodes":"127","size_leaf_vector":"1"}},{"base_weights":[-7.460511E-4,4.3437532E-1,-3.1458703E-1,6.840955E-1,2.705567E-1,-1.1728602E-1,-5.6661916E-1,8.4023243E-1,5.876647E-1,3.1409174E-1,4.366697E-3,-1.9289222E-2,-3.379579E-1,-3.8138902E-1,-7.1717614E-1,7.4712366E-1,9.088714E-1,6.568954E-1,5.1029533E-1,4.4027904E-1,2.5639802E-1,-1.9349314E-1,1.3446878E-1,7.688013E-2,-1.2335836E-1,-2.2777234E-1,-5.693077E-1,-3.084412E-1,-6.415077E-1,-5.972492E-1,-9.062431E-1,7.944347E-1,6.330866E-1,9.481922E-1,8.49494E-1,6.752252E-1,4.068379E-1,5.306306E-1,1.932508E-1,5.306965E-1,3.7434834E-1,3.3417085E-1,1.6201468E-1,-1.1216322E-1,-4.6309403E-1,1.9283281E-1,-1.4998564E-1,1.9113353E-1,-3.235593E-3,-4.3478765E-2,-2.7541772E-1,-1.5876108E-1,-4.252986E-1,-4.2755094E-1,-7.251022E-1,-1.4547755E-1,-3.8902485E-1,-5.241579E-1,-8.59266E-1,-4.6221983E-1,-7.202658E-1,-7.6939267E-1,-1.0061288E0,1.2876498E-2,4.000835E-2,3.652495E-2,2.888847E-2,4.7589E-2,1.6344747E-2,3.2761294E-2,4.314085E-2,3.673641E-2,3.0195463E-2,4.595722E-3,3.020809E-2,2.2801476E-2,3.1503078E-2,2.118901E-3,2.2824896E-2,-3.6960337E-3,2.679324E-2,1.3763747E-2,2.2377484E-2,2.0738233E-2,1.2654348E-2,1.2999612E-2,3.561711E-3,-1.5467615E-3,-1.5721807E-2,-2.4091996E-2,3.8670078E-2,1.331641E-2,-2.6278247E-3,-1.0042528E-2,3.0876542E-2,9.983456E-4,1.4081125E-2,-5.3330488E-3,2.5657183E-3,2.8079306E-3,-8.600735E-3,-1.6947465E-2,-5.1544355E-3,-2.0639902E-2,-6.2102345E-3,-2.7802764E-2,-1.17934225E-2,-3.1448085E-2,-1.7884767E-2,-4.410379E-2,-2.693419E-2,-2.5799375E-3,-1.4705456E-2,-1.3795833E-2,-2.5365425E-2,-2.2434322E-2,-4.0265284E-2,-3.2913547E-2,-5.3010054E-2,-2.7255705E-2,-1.0669976E-2,-4.1336697E-2,-2.778445E-2,-4.8544068E-2,-3.3458576E-2,-4.8575766E-2,-6.4687625E-2],"categories":[],"categories_nodes":[],"categories_segments":[],"categories_sizes":[],"default_left":[0,0,0,0,0,0,0,0,0,0,0,0,0,0,0,0,0,0,0,0,0,0,0,0,0,0,0,0,0,0,0,0,0,0,0,0,0,0,0,0,0,0,0,0,0,0,0,0,0,0,0,0,0,0,0,0,0,0,0,0,0,0,0,0,0,0,0,0,0,0,0,0,0,0,0,0,0,0,0,0,0,0,0,0,0,0,0,0,0,0,0,0,0,0,0,0,0,0,0,0,0,0,0,0,0,0,0,0,0,0,0,0,0,0,0,0,0,0,0,0,0,0,0,0,0,0,0],"id":10,"left_children":[1,3,5,7,9,11,13,15,17,19,21,23,25,27,29,31,33,35,37,39,41,43,45,47,49,51,53,55,57,59,61,63,65,67,69,71,73,75,77,79,81,83,85,87,89,91,93,95,97,99,101,103,105,107,109,111,113,115,117,119,121,123,125,-1,-1,-1,-1,-1,-1,-1,-1,-1,-1,-1,-1,-1,-1,-1,-1,-1,-1,-1,-1,-1,-1,-1,-1,-1,-1,-1,-1,-1,-1,-1,-1,-1,-1,-1,-1,-1,-1,-1,-1,-1,-1,-1,-1,-1,-1,-1,-1,-1,-1,-1,-1,-1,-1,-1,-1,-1,-1,-1,-1,-1,-1,-1,-1],"loss_changes":[1.6741979E4,2.1014307E3,3.5417217E3,3.0590723E2,3.5952246E2,8.639607E2,8.719092E2,4.8961426E1,6.706836E1,1.9400098E2,1.1230607E2,2.7690845E2,3.130564E2,2.6592432E2,3.9061133E2,1.7310913E1,9.622803E0,3.0149414E1,3.8239624E1,4.9663574E1,1.3427515E2,3.789669E1,4.3725792E1,1.3162689E2,1.6139165E2,1.13400604E2,8.721265E1,1.4380725E2,7.80199E1,1.7505176E2,9.072217E1,6.9641113E0,4.8215027E0,5.659424E0,4.0651855E0,2.5793457E1,2.8271667E1,4.116284E1,1.4279851E1,1.1053894E1,3.4981995E1,6.545166E1,7.352998E1,2.1857744E1,9.662453E0,3.940921E1,1.7639593E1,9.179846E1,4.770012E1,1.1159569E2,5.006726E1,5.411554E1,5.3237183E1,2.9003662E1,5.4731506E1,5.058452E1,9.792297E1,4.2033447E1,4.2668518E1,1.03760254E2,9.631885E1,5.646631E1,3.7232666E1,0E0,0E0,0E0,0E0,0E0,0E0,0E0,0E0,0E0,0E0,0E0,0E0,0E0,0E0,0E0,0E0,0E0,0E0,0E0,0E0,0E0,0E0,0E0,0E0,0E0,0E0,0E0,0E0,0E0,0E0,0E0,0E0,0E0,0E0,0E0,0E0,0E0,0E0,0E0,0E0,0E0,0E0,0E0,0E0,0E0,0E0,0E0,0E0,0E0,0E0,0E0,0E0,0E0,0E0,0E0,0E0,0E0,0E0,0E0,0E0,0E0,0E0,0E0,0E0],"parents":[2147483647,0,0,1,1,2,2,3,3,4,4,5,5,6,6,7,7,8,8,9,9,10,10,11,11,12,12,13,13,14,14,15,15,16,16,17,17,18,18,19,19,20,20,21,21,22,22,23,23,24,24,25,25,26,26,27,27,28,28,29,29,30,30,31,31,32,32,33,33,34,34,35,35,36,36,37,37,38,38,39,39,40,40,41,41,42,42,43,43,44,44,45,45,46,46,47,47,48,48,49,49,50,50,51,51,52,52,53,53,54,54,55,55,56,56,57,57,58,58,59,59,60,60,61,61,62,62],"right_children":[2,4,6,8,10,12,14,16,18,20,22,24,26,28,30,32,34,36,38,40,42,44,46,48,50,52,54,56,58,60,62,64,66,68,70,72,74,76,78,80,82,84,86,88,90,92,94,96,98,100,102,104,106,108,110,112,114,116,118,120,122,124,126,-1,-1,-1,-1,-1,-1,-1,-1,-1,-1,-1,-1,-1,-1,-1,-1,-1,-1,-1,-1,-1,-1,-1,-1,-1,-1,-1,-1,-1,-1,-1,-1,-1,-1,-1,-1,-1,-1,-1,-1,-1,-1,-1,-1,-1,-1,-1,-1,-1,-1,-1,-1,-1,-1,-1,-1,-1,-1,-1,-1,-1,-1,-1,-1],"split_conditions":[-1.4265028E-1,-8.931693E-1,7.7465075E-1,-1.2642592E0,6E1,6E1,6E1,9.440446E-1,-1.913995E-1,-5.9504646E-1,3.0522704E-1,1E0,1E0,1.6419172E0,1E0,1.6689785E-1,-1.414363E0,6E1,6E1,-3.7930137E-1,1E0,5.7538015E-1,8.753229E-1,-1.4121452E-1,4.7267604E-1,7.24768E-1,1.5756111E-1,-3.267822E-1,7.679504E-1,2.1124735E-1,8.170011E-2,-1.5335466E0,6.7998976E-2,1E0,-9.424534E-1,-1.1079011E0,9.440446E-1,6.246358E-1,1.5828621E0,-1.6785244E0,-1.7388614E-1,-4.5512956E-2,-1.8089566E-1,1E0,3.3947103E0,1E0,2.8604972E0,-4.6228024E-1,-4.0499127E-1,1E0,-1.418174E-2,-6.335859E-1,3.0522704E-1,-5.3418434E-1,-1.418174E-2,1E0,1E0,2.5029292E0,1E0,4.466201E-1,-1.7388614E-1,-4.681408E-1,1.8801894E0,1.2876498E-2,4.000835E-2,3.652495E-2,2.888847E-2,4.7589E-2,1.6344747E-2,3.2761294E-2,4.314085E-2,3.673641E-2,3.0195463E-2,4.595722E-3,3.020809E-2,2.2801476E-2,3.1503078E-2,2.118901E-3,2.2824896E-2,-3.6960337E-3,2.679324E-2,1.3763747E-2,2.2377484E-2,2.0738233E-2,1.2654348E-2,1.2999612E-2,3.561711E-3,-1.5467615E-3,-1.5721807E-2,-2.4091996E-2,3.8670078E-2,1.331641E-2,-2.6278247E-3,-1.0042528E-2,3.0876542E-2,9.983456E-4,1.4081125E-2,-5.3330488E-3,2.5657183E-3,2.8079306E-3,-8.600735E-3,-1.6947465E-2,-5.1544355E-3,-2.0639902E-2,-6.2102345E-3,-2.7802764E-2,-1.17934225E-2,-3.1448085E-2,-1.7884767E-2,-4.410379E-2,-2.693419E-2,-2.5799375E-3,-1.4705456E-2,-1.3795833E-2,-2.5365425E-2,-2.2434322E-2,-4.0265284E-2,-3.2913547E-2,-5.3010054E-2,-2.7255705E-2,-1.0669976E-2,-4.1336697E-2,-2.778445E-2,-4.8544068E-2,-3.3458576E-2,-4.8575766E-2,-6.4687625E-2],"split_indices":[2,2,2,2,1,1,1,16,5,2,16,18,18,2,18,5,2,1,1,5,18,5,5,5,5,5,5,5,5,5,5,15,12,27,4,2,16,16,16,12,16,5,5,18,12,18,16,15,15,19,16,4,16,4,16,19,18,2,18,10,16,4,5,0,0,0,0,0,0,0,0,0,0,0,0,0,0,0,0,0,0,0,0,0,0,0,0,0,0,0,0,0,0,0,0,0,0,0,0,0,0,0,0,0,0,0,0,0,0,0,0,0,0,0,0,0,0,0,0,0,0,0,0,0,0,0,0],"split_type":[0,0,0,0,0,0,0,0,0,0,0,0,0,0,0,0,0,0,0,0,0,0,0,0,0,0,0,0,0,0,0,0,0,0,0,0,0,0,0,0,0,0,0,0,0,0,0,0,0,0,0,0,0,0,0,0,0,0,0,0,0,0,0,0,0,0,0,0,0,0,0,0,0,0,0,0,0,0,0,0,0,0,0,0,0,0,0,0,0,0,0,0,0,0,0,0,0,0,0,0,0,0,0,0,0,0,0,0,0,0,0,0,0,0,0,0,0,0,0,0,0,0,0,0,0,0,0],"sum_hessian":[1.2259696E5,5.137218E4,7.122478E4,2.0349236E4,3.1022943E4,3.995099E4,3.127379E4,7.7664287E3,1.2582809E4,2.6662193E4,4.3607495E3,2.7666037E4,1.228495E4,1.4023822E4,1.7249967E4,3.3007917E3,4.4656367E3,6.636726E3,5.946082E3,8.363336E3,1.8298857E4,1.7297106E3,2.6310388E3,1.4378894E4,1.3287144E4,8.322944E3,3.9620059E3,1.0954049E4,3.0697732E3,1.0557441E4,6.692526E3,2.3287048E3,9.72087E2,2.6775486E3,1.7880883E3,6.1818794E3,4.5484674E2,5.587053E3,3.5902866E2,3.5237747E3,4.8395615E3,1.003082E4,8.268037E3,1.3299296E3,3.9978094E2,2.183378E3,4.476609E2,5.92617E3,8.452724E3,8.711904E3,4.5752393E3,6.1693247E3,2.1536199E3,2.0764226E3,1.8855834E3,3.6253464E3,7.3287026E3,1.9969987E3,1.0727745E3,5.0352505E3,5.522191E3,2.8274395E3,3.8650867E3,2.5085285E1,2.3036194E3,3.4766016E2,6.244268E2,2.6616465E3,1.5902041E1,1.17978584E2,1.6701097E3,3.3649812E3,2.8168982E3,1.7577711E2,2.7906964E2,3.1952808E3,2.3917727E3,2.2896481E2,1.3006384E2,2.975307E1,3.4940215E3,2.0584023E3,2.781159E3,5.0285503E3,5.00227E3,3.975497E3,4.29254E3,9.49704E2,3.8022565E2,3.9441177E2,5.369168E0,1.6800953E3,5.0328256E2,4.2052982E2,2.7131067E1,2.0498833E3,3.8762866E3,2.9184531E3,5.5342705E3,4.907959E3,3.8039458E3,3.342143E3,1.2330962E3,7.374092E2,5.4319155E3,1.2729882E3,8.806318E2,5.326522E2,1.5437703E3,1.0216072E3,8.639762E2,2.2227551E3,1.4025913E3,3.7480142E3,3.5806882E3,1.5764198E3,4.2057886E2,5.3844495E2,5.343296E2,3.776067E3,1.2591836E3,3.3505974E3,2.1715938E3,9.363256E2,1.8911138E3,3.4538208E3,4.112659E2],"tree_param":{"num_deleted":"0","num_feature":"29","num_nodes":"127","size_leaf_vector":"1"}},{"base_weights":[1.2328828E-3,4.2215347E-1,-2.9493228E-1,7.061557E-1,2.8344557E-1,-9.7920686E-2,-5.2289087E-1,8.3108765E-1,6.0185766E-1,4.178946E-1,2.0268475E-1,-1.3608462E-2,-2.8988904E-1,-3.421974E-1,-6.728244E-1,7.226014E-1,8.947467E-1,6.207444E-1,3.013277E-1,4.4731516E-1,1.956929E-1,2.4453007E-1,-4.1398715E-2,9.8881826E-2,-9.4060846E-2,-1.891749E-1,-5.027975E-1,1.18599385E-2,-3.9636058E-1,-5.5792975E-1,-8.542916E-1,7.663368E-1,5.475813E-1,8.5227054E-1,9.503165E-1,6.723333E-1,5.3091353E-1,6.7060836E-2,5.32214E-1,5.063415E-1,3.59745E-1,2.9855034E-1,-1.03962995E-1,3.2501844E-1,1.475073E-1,-1.5152511E-1,1.9579151E-1,-2.129852E-2,1.9128188E-1,2.6546062E-3,-2.0335293E-1,-1.3320202E-1,-3.766814E-1,-3.7492487E-1,-6.488066E-1,3.5815543E-1,-6.1573982E-2,-2.943097E-1,-6.305703E-1,-4.5523465E-1,-7.035607E-1,-7.8337824E-1,-1.0832933E0,8.522033E-3,3.8608007E-2,1.5156795E-2,2.974697E-2,2.777574E-2,4.3278493E-2,4.8943717E-2,4.2971764E-2,3.0640453E-2,3.706694E-2,2.9049942E-2,1.8991716E-2,-2.9914493E-2,6.886379E-3,3.1153629E-2,3.602716E-3,2.050303E-2,2.725215E-2,2.2686783E-2,1.2573304E-2,1.8596036E-2,1.910685E-3,7.0472816E-3,-1.5553266E-2,1.0975578E-2,1.915945E-2,1.2497733E-2,2.638897E-3,-3.0682345E-3,-1.9202925E-2,7.3028833E-4,1.4467639E-2,2.1240562E-3,-1.1279965E-2,1.3611357E-2,3.971281E-3,-3.5955978E-3,4.7231102E-3,-6.2369667E-3,-1.5644124E-2,-1.0757779E-2,-9.6731324E-4,-2.696678E-2,-1.225106E-2,-3.4978386E-2,-1.696409E-2,-3.8304307E-2,-2.5699664E-2,1.1947675E-2,3.4205493E-2,-7.3597403E-3,1.16427755E-2,-9.538768E-3,-1.9207511E-2,-2.8175566E-2,-4.4881713E-2,-3.0007869E-2,-1.7280562E-2,-3.9889142E-2,-2.5874684E-2,-3.6653645E-2,-5.0798755E-2,2.745442E-2,-5.448556E-2],"categories":[],"categories_nodes":[],"categories_segments":[],"categories_sizes":[],"default_left":[0,0,0,0,0,0,0,0,0,0,0,0,0,0,0,0,0,0,0,0,0,0,0,0,0,0,0,0,0,0,0,0,0,0,0,0,0,0,0,0,0,0,0,0,0,0,0,0,0,0,0,0,0,0,0,0,0,0,0,0,0,0,0,0,0,0,0,0,0,0,0,0,0,0,0,0,0,0,0,0,0,0,0,0,0,0,0,0,0,0,0,0,0,0,0,0,0,0,0,0,0,0,0,0,0,0,0,0,0,0,0,0,0,0,0,0,0,0,0,0,0,0,0,0,0,0,0],"id":11,"left_children":[1,3,5,7,9,11,13,15,17,19,21,23,25,27,29,31,33,35,37,39,41,43,45,47,49,51,53,55,57,59,61,63,65,67,69,71,73,75,77,79,81,83,85,87,89,91,93,95,97,99,101,103,105,107,109,111,113,115,117,119,121,123,125,-1,-1,-1,-1,-1,-1,-1,-1,-1,-1,-1,-1,-1,-1,-1,-1,-1,-1,-1,-1,-1,-1,-1,-1,-1,-1,-1,-1,-1,-1,-1,-1,-1,-1,-1,-1,-1,-1,-1,-1,-1,-1,-1,-1,-1,-1,-1,-1,-1,-1,-1,-1,-1,-1,-1,-1,-1,-1,-1,-1,-1,-1,-1,-1],"loss_changes":[1.524023E4,1.9888398E3,3.2227554E3,2.153789E2,3.68281E2,6.2303906E2,9.010459E2,5.139453E1,5.108496E1,8.313208E1,2.1650183E2,2.4208328E2,2.5179987E2,2.8934802E2,3.7857227E2,2.0950684E1,1.0389404E1,3.902539E1,2.8959267E1,5.7920654E1,4.596206E1,1.4125366E2,8.107967E1,1.23863625E2,1.6484706E2,8.3664764E1,7.017871E1,5.095506E1,3.1259326E2,1.6620801E2,1.1357764E2,7.610718E0,6.3217926E0,1.0170654E1,4.4711914E0,2.1702637E1,2.3272766E1,1.264689E1,1.1236702E1,2.4787842E1,4.59834E1,2.1181473E1,1.9396341E1,6.060852E1,7.962657E1,4.4414257E1,1.668143E1,6.3193348E1,5.7072662E1,5.6653587E1,6.300412E1,5.73276E1,3.9124664E1,2.3057495E1,2.7427795E1,1.3457405E1,4.1713352E1,8.472565E1,7.060437E1,1.03579834E2,8.028467E1,6.2250244E1,1.8025024E1,0E0,0E0,0E0,0E0,0E0,0E0,0E0,0E0,0E0,0E0,0E0,0E0,0E0,0E0,0E0,0E0,0E0,0E0,0E0,0E0,0E0,0E0,0E0,0E0,0E0,0E0,0E0,0E0,0E0,0E0,0E0,0E0,0E0,0E0,0E0,0E0,0E0,0E0,0E0,0E0,0E0,0E0,0E0,0E0,0E0,0E0,0E0,0E0,0E0,0E0,0E0,0E0,0E0,0E0,0E0,0E0,0E0,0E0,0E0,0E0,0E0,0E0,0E0,0E0],"parents":[2147483647,0,0,1,1,2,2,3,3,4,4,5,5,6,6,7,7,8,8,9,9,10,10,11,11,12,12,13,13,14,14,15,15,16,16,17,17,18,18,19,19,20,20,21,21,22,22,23,23,24,24,25,25,26,26,27,27,28,28,29,29,30,30,31,31,32,32,33,33,34,34,35,35,36,36,37,37,38,38,39,39,40,40,41,41,42,42,43,43,44,44,45,45,46,46,47,47,48,48,49,49,50,50,51,51,52,52,53,53,54,54,55,55,56,56,57,57,58,58,59,59,60,60,61,61,62,62],"right_children":[2,4,6,8,10,12,14,16,18,20,22,24,26,28,30,32,34,36,38,40,42,44,46,48,50,52,54,56,58,60,62,64,66,68,70,72,74,76,78,80,82,84,86,88,90,92,94,96,98,100,102,104,106,108,110,112,114,116,118,120,122,124,126,-1,-1,-1,-1,-1,-1,-1,-1,-1,-1,-1,-1,-1,-1,-1,-1,-1,-1,-1,-1,-1,-1,-1,-1,-1,-1,-1,-1,-1,-1,-1,-1,-1,-1,-1,-1,-1,-1,-1,-1,-1,-1,-1,-1,-1,-1,-1,-1,-1,-1,-1,-1,-1,-1,-1,-1,-1,-1,-1,-1,-1,-1,-1,-1],"split_conditions":[-1.4265028E-1,-1.0495274E0,6.8292063E-1,-1.2642592E0,-5.9504646E-1,6E1,6E1,7.843402E-1,6E1,6E1,6E1,-1.7039183E-1,1E0,-1.2164516E0,1E0,4.5983803E-1,2.0619752E0,1E0,1.2634534E0,1E0,4.2249107E-1,1E0,9.440446E-1,-4.6228024E-1,1E0,8.1346697E-1,1.5756111E-1,-1.473159E0,1.4000833E0,5.22861E-1,1.1134098E0,-1.5335466E0,-7.49131E-1,-9.6166605E-1,1E0,6.246358E-1,4.1082016E-1,-5.759719E-1,1E0,-4.932949E-1,-1.5055126E-1,1E0,4.0608874E-1,-4.932949E-1,-1.8089566E-1,1E0,-2.7101135E-1,2.4300452E-2,1E0,1.6625632E-2,2.4720266E-1,1.4552265E-1,-1.418174E-2,-1.1231629E0,-1.418174E-2,-4.141052E-1,-2.4599442E-1,9.220394E-2,2.413284E0,-2.2264008E-1,6.973297E-1,2.413284E0,-5.632741E-1,8.522033E-3,3.8608007E-2,1.5156795E-2,2.974697E-2,2.777574E-2,4.3278493E-2,4.8943717E-2,4.2971764E-2,3.0640453E-2,3.706694E-2,2.9049942E-2,1.8991716E-2,-2.9914493E-2,6.886379E-3,3.1153629E-2,3.602716E-3,2.050303E-2,2.725215E-2,2.2686783E-2,1.2573304E-2,1.8596036E-2,1.910685E-3,7.0472816E-3,-1.5553266E-2,1.0975578E-2,1.915945E-2,1.2497733E-2,2.638897E-3,-3.0682345E-3,-1.9202925E-2,7.3028833E-4,1.4467639E-2,2.1240562E-3,-1.1279965E-2,1.3611357E-2,3.971281E-3,-3.5955978E-3,4.7231102E-3,-6.2369667E-3,-1.5644124E-2,-1.0757779E-2,-9.6731324E-4,-2.696678E-2,-1.225106E-2,-3.4978386E-2,-1.696409E-2,-3.8304307E-2,-2.5699664E-2,1.1947675E-2,3.4205493E-2,-7.3597403E-3,1.16427755E-2,-9.538768E-3,-1.9207511E-2,-2.8175566E-2,-4.4881713E-2,-3.0007869E-2,-1.7280562E-2,-3.9889142E-2,-2.5874684E-2,-3.6653645E-2,-5.0798755E-2,2.745442E-2,-5.448556E-2],"split_indices":[2,2,2,2,2,1,1,16,1,1,1,5,18,0,18,5,16,18,16,18,5,18,16,15,18,5,5,0,2,5,5,15,11,4,18,16,5,4,18,16,5,18,8,16,5,18,3,0,18,15,2,16,16,15,16,4,4,5,2,15,10,2,0,0,0,0,0,0,0,0,0,0,0,0,0,0,0,0,0,0,0,0,0,0,0,0,0,0,0,0,0,0,0,0,0,0,0,0,0,0,0,0,0,0,0,0,0,0,0,0,0,0,0,0,0,0,0,0,0,0,0,0,0,0,0,0,0],"split_type":[0,0,0,0,0,0,0,0,0,0,0,0,0,0,0,0,0,0,0,0,0,0,0,0,0,0,0,0,0,0,0,0,0,0,0,0,0,0,0,0,0,0,0,0,0,0,0,0,0,0,0,0,0,0,0,0,0,0,0,0,0,0,0,0,0,0,0,0,0,0,0,0,0,0,0,0,0,0,0,0,0,0,0,0,0,0,0,0,0,0,0,0,0,0,0,0,0,0,0,0,0,0,0,0,0,0,0,0,0,0,0,0,0,0,0,0,0,0,0,0,0,0,0,0,0,0,0],"sum_hessian":[1.222504E5,5.049073E4,7.175967E4,1.6566658E4,3.3924074E4,3.8493426E4,3.3266242E4,7.5345444E3,9.032114E3,1.2728968E4,2.1195105E4,2.6747178E4,1.174625E4,1.5087146E4,1.8179096E4,2.790829E3,4.743716E3,8.497055E3,5.350601E2,1.1239758E4,1.4892102E3,1.8093227E4,3.1018787E3,1.1152824E4,1.5594354E4,7.9754395E3,3.7708113E3,2.0018839E3,1.3085263E4,1.11338545E4,7.0452417E3,2.2301604E3,5.606687E2,2.6978687E3,2.0458469E3,5.3932715E3,3.1037827E3,2.662263E2,2.6883386E2,6.711269E3,4.528489E3,1.1086632E3,3.8054703E2,9.887981E3,8.205244E3,2.1185884E3,9.832903E2,4.848013E3,6.3048105E3,8.273707E3,7.320646E3,6.143302E3,1.8321375E3,2.0121597E3,1.7586515E3,3.4956204E2,1.6523219E3,9.115622E3,3.969641E3,6.5318735E3,4.601981E3,5.382806E3,1.6624359E3,2.1875956E1,2.2082844E3,9.219465E1,4.6847403E2,1.175551E2,2.5803135E3,1.5492507E3,4.965962E2,2.9008633E3,2.4924082E3,2.3288755E3,7.749073E2,2.484414E1,2.4138216E2,2.2420963E2,4.462423E1,1.9275465E3,4.7837227E3,2.4224822E3,2.1060063E3,8.6457294E2,2.4409029E2,1.7450536E2,2.0604167E2,3.5158616E3,6.37212E3,3.9412478E3,4.263996E3,1.527567E3,5.9102136E2,3.352395E2,6.480508E2,3.6952146E3,1.1527987E3,3.6569849E3,2.647826E3,4.565667E3,3.7080398E3,4.2630376E3,3.0576084E3,3.5715815E3,2.5717202E3,8.1821295E2,1.0139245E3,1.9722017E2,1.8149395E3,9.3798126E2,8.206702E2,2.5722693E2,9.233512E1,1.2804608E3,3.7186108E2,4.2365E3,4.8791216E3,3.175414E3,7.9422705E2,2.8111042E3,3.720769E3,3.0527944E3,1.5491865E3,4.429054E3,9.5375183E2,6.1792746E0,1.6562567E3],"tree_param":{"num_deleted":"0","num_feature":"29","num_nodes":"127","size_leaf_vector":"1"}},{"base_weights":[2.1783796E-3,4.0676737E-1,-2.7708542E-1,6.8665063E-1,2.7266738E-1,-1.2969187E-1,-5.4685193E-1,8.100477E-1,5.846753E-1,3.1157875E-1,2.7322812E-2,-3.6461234E-2,-3.2221952E-1,-3.82276E-1,-6.614322E-1,7.326103E-1,8.960985E-1,6.03886E-1,2.8435498E-1,4.2798218E-1,2.3979592E-1,-2.0006865E-1,1.1120087E-1,-1.301775E-1,5.959422E-2,-5.615038E-1,-2.0928195E-1,